FANN_FLO_2.1
num_layers=3
learning_rate=0.700000
connection_rate=1.000000
network_type=0
learning_momentum=0.000000
training_algorithm=2
train_error_function=1
train_stop_function=0
cascade_output_change_fraction=0.010000
quickprop_decay=-0.000100
quickprop_mu=1.750000
rprop_increase_factor=1.200000
rprop_decrease_factor=0.500000
rprop_delta_min=0.000000
rprop_delta_max=50.000000
rprop_delta_zero=0.100000
cascade_output_stagnation_epochs=12
cascade_candidate_change_fraction=0.010000
cascade_candidate_stagnation_epochs=12
cascade_max_out_epochs=150
cascade_min_out_epochs=50
cascade_max_cand_epochs=150
cascade_min_cand_epochs=50
cascade_num_candidate_groups=2
bit_fail_limit=3.49999994039535522461e-01
cascade_candidate_limit=1.00000000000000000000e+03
cascade_weight_multiplier=4.00000005960464477539e-01
cascade_activation_functions_count=10
cascade_activation_functions=3 5 7 8 10 11 14 15 16 17 
cascade_activation_steepnesses_count=4
cascade_activation_steepnesses=2.50000000000000000000e-01 5.00000000000000000000e-01 7.50000000000000000000e-01 1.00000000000000000000e+00 
layer_sizes=10 82 4 
scale_included=0
neurons (num_inputs, activation_function, activation_steepness)=(0, 0, 0.00000000000000000000e+00) (0, 0, 0.00000000000000000000e+00) (0, 0, 0.00000000000000000000e+00) (0, 0, 0.00000000000000000000e+00) (0, 0, 0.00000000000000000000e+00) (0, 0, 0.00000000000000000000e+00) (0, 0, 0.00000000000000000000e+00) (0, 0, 0.00000000000000000000e+00) (0, 0, 0.00000000000000000000e+00) (0, 0, 0.00000000000000000000e+00) (10, 5, 5.00000000000000000000e-01) (10, 5, 5.00000000000000000000e-01) (10, 5, 5.00000000000000000000e-01) (10, 5, 5.00000000000000000000e-01) (10, 5, 5.00000000000000000000e-01) (10, 5, 5.00000000000000000000e-01) (10, 5, 5.00000000000000000000e-01) (10, 5, 5.00000000000000000000e-01) (10, 5, 5.00000000000000000000e-01) (10, 5, 5.00000000000000000000e-01) (10, 5, 5.00000000000000000000e-01) (10, 5, 5.00000000000000000000e-01) (10, 5, 5.00000000000000000000e-01) (10, 5, 5.00000000000000000000e-01) (10, 5, 5.00000000000000000000e-01) (10, 5, 5.00000000000000000000e-01) (10, 5, 5.00000000000000000000e-01) (10, 5, 5.00000000000000000000e-01) (10, 5, 5.00000000000000000000e-01) (10, 5, 5.00000000000000000000e-01) (10, 5, 5.00000000000000000000e-01) (10, 5, 5.00000000000000000000e-01) (10, 5, 5.00000000000000000000e-01) (10, 5, 5.00000000000000000000e-01) (10, 5, 5.00000000000000000000e-01) (10, 5, 5.00000000000000000000e-01) (10, 5, 5.00000000000000000000e-01) (10, 5, 5.00000000000000000000e-01) (10, 5, 5.00000000000000000000e-01) (10, 5, 5.00000000000000000000e-01) (10, 5, 5.00000000000000000000e-01) (10, 5, 5.00000000000000000000e-01) (10, 5, 5.00000000000000000000e-01) (10, 5, 5.00000000000000000000e-01) (10, 5, 5.00000000000000000000e-01) (10, 5, 5.00000000000000000000e-01) (10, 5, 5.00000000000000000000e-01) (10, 5, 5.00000000000000000000e-01) (10, 5, 5.00000000000000000000e-01) (10, 5, 5.00000000000000000000e-01) (10, 5, 5.00000000000000000000e-01) (10, 5, 5.00000000000000000000e-01) (10, 5, 5.00000000000000000000e-01) (10, 5, 5.00000000000000000000e-01) (10, 5, 5.00000000000000000000e-01) (10, 5, 5.00000000000000000000e-01) (10, 5, 5.00000000000000000000e-01) (10, 5, 5.00000000000000000000e-01) (10, 5, 5.00000000000000000000e-01) (10, 5, 5.00000000000000000000e-01) (10, 5, 5.00000000000000000000e-01) (10, 5, 5.00000000000000000000e-01) (10, 5, 5.00000000000000000000e-01) (10, 5, 5.00000000000000000000e-01) (10, 5, 5.00000000000000000000e-01) (10, 5, 5.00000000000000000000e-01) (10, 5, 5.00000000000000000000e-01) (10, 5, 5.00000000000000000000e-01) (10, 5, 5.00000000000000000000e-01) (10, 5, 5.00000000000000000000e-01) (10, 5, 5.00000000000000000000e-01) (10, 5, 5.00000000000000000000e-01) (10, 5, 5.00000000000000000000e-01) (10, 5, 5.00000000000000000000e-01) (10, 5, 5.00000000000000000000e-01) (10, 5, 5.00000000000000000000e-01) (10, 5, 5.00000000000000000000e-01) (10, 5, 5.00000000000000000000e-01) (10, 5, 5.00000000000000000000e-01) (10, 5, 5.00000000000000000000e-01) (10, 5, 5.00000000000000000000e-01) (10, 5, 5.00000000000000000000e-01) (10, 5, 5.00000000000000000000e-01) (10, 5, 5.00000000000000000000e-01) (10, 5, 5.00000000000000000000e-01) (10, 5, 5.00000000000000000000e-01) (10, 5, 5.00000000000000000000e-01) (10, 5, 5.00000000000000000000e-01) (10, 5, 5.00000000000000000000e-01) (10, 5, 5.00000000000000000000e-01) (10, 5, 5.00000000000000000000e-01) (0, 5, 0.00000000000000000000e+00) (82, 5, 5.00000000000000000000e-01) (82, 5, 5.00000000000000000000e-01) (82, 5, 5.00000000000000000000e-01) (0, 5, 0.00000000000000000000e+00) 
connections (connected_to_neuron, weight)=(0, 6.15775048732757568359e-01) (1, 6.31292402744293212891e-01) (2, 6.73356592655181884766e-01) (3, -4.76670265197753906250e-02) (4, -6.02751411497592926025e-03) (5, 4.78702969849109649658e-03) (6, -1.02126061916351318359e-01) (7, -1.10172688961029052734e-01) (8, -1.18073850870132446289e-01) (9, 7.79503464698791503906e-01) (0, 9.56104338169097900391e-01) (1, 8.74204814434051513672e-01) (2, 9.25747096538543701172e-01) (3, -2.20439527183771133423e-02) (4, 7.75189511477947235107e-03) (5, -1.86732728034257888794e-02) (6, -1.75077646970748901367e-01) (7, -1.39336436986923217773e-01) (8, -1.93456739187240600586e-01) (9, 8.70492309331893920898e-02) (0, -4.74890694022178649902e-02) (1, -1.06801509857177734375e-01) (2, 3.73816937208175659180e-02) (3, -6.46515339612960815430e-02) (4, -1.64264336228370666504e-01) (5, 8.01953859627246856689e-03) (6, 7.47629441320896148682e-03) (7, -1.69236764311790466309e-01) (8, -2.95210629701614379883e-04) (9, 3.12159992754459381104e-02) (0, -2.12543010711669921875e-01) (1, -1.75177693367004394531e-01) (2, -2.46535569429397583008e-01) (3, 1.93382605910301208496e-01) (4, 1.44880816340446472168e-01) (5, 3.15162390470504760742e-01) (6, 2.92057424783706665039e-01) (7, 3.87397021055221557617e-01) (8, 3.49632054567337036133e-01) (9, 3.04332077503204345703e-01) (0, -7.14824870228767395020e-02) (1, -9.05027166008949279785e-02) (2, 5.24227693676948547363e-02) (3, 8.83476018905639648438e-01) (4, 7.99116075038909912109e-01) (5, 7.71837413311004638672e-01) (6, 2.94457048177719116211e-01) (7, 2.52201467752456665039e-01) (8, 2.60664105415344238281e-01) (9, -5.24029254913330078125e-01) (0, -1.90258085727691650391e-01) (1, -1.68596684932708740234e-01) (2, -1.02692693471908569336e-01) (3, 7.10501372814178466797e-01) (4, 6.76739990711212158203e-01) (5, 6.43031179904937744141e-01) (6, -4.13564920425415039062e-01) (7, -4.51882869005203247070e-01) (8, -4.62304741144180297852e-01) (9, -2.93248951435089111328e-01) (0, 7.98034369945526123047e-02) (1, 4.92290481925010681152e-02) (2, 1.21846646070480346680e-01) (3, 4.25404489040374755859e-01) (4, 4.16741728782653808594e-01) (5, 4.40857529640197753906e-01) (6, 1.20431795716285705566e-01) (7, 1.44495308399200439453e-01) (8, 6.39506727457046508789e-02) (9, -2.49479115009307861328e-02) (0, 5.51940619945526123047e-01) (1, 6.25615656375885009766e-01) (2, 5.42560875415802001953e-01) (3, 3.67218405008316040039e-01) (4, 4.46655422449111938477e-01) (5, 4.79240626096725463867e-01) (6, 6.75691962242126464844e-01) (7, 5.34465789794921875000e-01) (8, 5.24795413017272949219e-01) (9, 6.68492615222930908203e-01) (0, 6.17024242877960205078e-01) (1, 5.57197511196136474609e-01) (2, 5.51856935024261474609e-01) (3, 4.34594601392745971680e-01) (4, 4.68794792890548706055e-01) (5, 4.29692953824996948242e-01) (6, 6.77794218063354492188e-01) (7, 5.78305065631866455078e-01) (8, 7.00885176658630371094e-01) (9, 6.77347838878631591797e-01) (0, -1.90075218677520751953e-01) (1, -1.92688345909118652344e-01) (2, -2.17499256134033203125e-01) (3, -6.04751482605934143066e-02) (4, -5.96395507454872131348e-02) (5, -9.31131839752197265625e-02) (6, -1.00902020931243896484e-01) (7, -1.26335978507995605469e-01) (8, -1.35746121406555175781e-01) (9, -3.90857040882110595703e-01) (0, 3.21817725896835327148e-01) (1, 3.61296117305755615234e-01) (2, 1.86923056840896606445e-01) (3, 5.09708702564239501953e-01) (4, 5.41001141071319580078e-01) (5, 6.46065056324005126953e-01) (6, 3.73958885669708251953e-01) (7, 3.69786679744720458984e-01) (8, 5.33624470233917236328e-01) (9, 1.35774329304695129395e-01) (0, -4.33421075344085693359e-01) (1, -2.85593211650848388672e-01) (2, -2.95028358697891235352e-01) (3, 7.37636268138885498047e-01) (4, 7.35358417034149169922e-01) (5, 7.60123312473297119141e-01) (6, 3.68338167667388916016e-01) (7, 3.82245630025863647461e-01) (8, 5.07521450519561767578e-01) (9, 2.08879008889198303223e-01) (0, -9.27748382091522216797e-02) (1, -3.17359268665313720703e-02) (2, 1.26145388931035995483e-02) (3, 1.76134854555130004883e-01) (4, 4.55544516444206237793e-02) (5, 9.07405316829681396484e-02) (6, 7.85078294575214385986e-03) (7, 1.09766863286495208740e-01) (8, 1.29518985748291015625e-01) (9, -3.32586765289306640625e-02) (0, 2.68548756837844848633e-01) (1, 1.98832303285598754883e-01) (2, 1.90286889672279357910e-01) (3, 8.05697560310363769531e-01) (4, 7.63457775115966796875e-01) (5, 7.86204814910888671875e-01) (6, -2.38436102867126464844e-01) (7, -2.20614135265350341797e-01) (8, -2.02039241790771484375e-01) (9, 8.64325091242790222168e-02) (0, 9.77716386318206787109e-01) (1, 9.65117156505584716797e-01) (2, 8.61341536045074462891e-01) (3, 9.20119881629943847656e-01) (4, 8.71005833148956298828e-01) (5, 9.64952290058135986328e-01) (6, -5.72047472000122070312e-01) (7, -4.96778011322021484375e-01) (8, -5.88924109935760498047e-01) (9, 3.87724876403808593750e-01) (0, 5.04579901695251464844e-01) (1, 4.32104706764221191406e-01) (2, 5.01962661743164062500e-01) (3, 4.25995945930480957031e-01) (4, 3.48380744457244873047e-01) (5, 4.87658321857452392578e-01) (6, -4.24348473548889160156e-01) (7, -3.40577363967895507812e-01) (8, -2.99383759498596191406e-01) (9, -1.54803665354847908020e-02) (0, 9.76986587047576904297e-02) (1, -7.23979435861110687256e-03) (2, -4.54344972968101501465e-02) (3, 1.18714142590761184692e-02) (4, -1.35721685364842414856e-02) (5, 1.05993270874023437500e-01) (6, -1.03948771953582763672e-01) (7, 5.51663972437381744385e-02) (8, -7.44614843279123306274e-03) (9, 1.40004545450210571289e-01) (0, -4.73089441657066345215e-02) (1, -4.17080149054527282715e-02) (2, 1.42167061567306518555e-02) (3, 6.12142145633697509766e-01) (4, 4.76521492004394531250e-01) (5, 4.83332246541976928711e-01) (6, 9.20385956764221191406e-01) (7, 8.68308603763580322266e-01) (8, 9.50388789176940917969e-01) (9, -7.03262388706207275391e-02) (0, -2.86703884601593017578e-01) (1, -2.82390594482421875000e-01) (2, -3.49329471588134765625e-01) (3, 4.07617330551147460938e-01) (4, 3.78514200448989868164e-01) (5, 4.33960080146789550781e-01) (6, -4.11648511886596679688e-01) (7, -4.28982019424438476562e-01) (8, -4.89764928817749023438e-01) (9, -4.07988071441650390625e-01) (0, -5.25909125804901123047e-01) (1, -3.50944757461547851562e-01) (2, -4.48812276124954223633e-01) (3, -1.61157116293907165527e-01) (4, -1.58990696072578430176e-01) (5, -8.23017954826354980469e-02) (6, 2.31420218944549560547e-01) (7, 2.83535659313201904297e-01) (8, 3.19339752197265625000e-01) (9, -6.58768266439437866211e-02) (0, -2.26084887981414794922e-01) (1, -2.82769143581390380859e-01) (2, -2.44221806526184082031e-01) (3, -7.35825002193450927734e-02) (4, 7.34691843390464782715e-02) (5, -2.36041247844696044922e-02) (6, -2.43862807750701904297e-01) (7, -1.99128746986389160156e-01) (8, -1.48279458284378051758e-01) (9, -3.71970534324645996094e-01) (0, -1.92666471004486083984e-01) (1, -1.85075461864471435547e-01) (2, -1.15306884050369262695e-01) (3, 7.87191689014434814453e-01) (4, 8.21382462978363037109e-01) (5, 6.62047803401947021484e-01) (6, -2.76327818632125854492e-01) (7, -2.76259809732437133789e-01) (8, -2.52927869558334350586e-01) (9, -2.86883801221847534180e-01) (0, -1.12400658428668975830e-01) (1, -7.48804882168769836426e-02) (2, -1.21921703219413757324e-01) (3, 5.48641026020050048828e-01) (4, 5.62154829502105712891e-01) (5, 5.17280042171478271484e-01) (6, -2.13444903492927551270e-01) (7, -3.04372221231460571289e-01) (8, -2.97131508588790893555e-01) (9, -2.87317365407943725586e-01) (0, -4.70524653792381286621e-02) (1, 8.08276236057281494141e-02) (2, 4.59077581763267517090e-02) (3, 5.35563349723815917969e-01) (4, 6.40007555484771728516e-01) (5, 5.52139341831207275391e-01) (6, 9.75003838539123535156e-01) (7, 8.62823009490966796875e-01) (8, 8.19688916206359863281e-01) (9, 1.37690678238868713379e-01) (0, -2.50579595565795898438e-01) (1, -2.43443384766578674316e-01) (2, -3.01509797573089599609e-01) (3, 4.10394847393035888672e-01) (4, 4.00862544775009155273e-01) (5, 3.76986861228942871094e-01) (6, -2.25036934018135070801e-01) (7, -1.95791915059089660645e-01) (8, -2.19599559903144836426e-01) (9, -4.03607279062271118164e-01) (0, -7.46717303991317749023e-02) (1, -9.13404822349548339844e-02) (2, 3.32199260592460632324e-02) (3, 1.68501749634742736816e-01) (4, 2.61104464530944824219e-01) (5, 1.99178591370582580566e-01) (6, -5.49432411789894104004e-02) (7, 2.36197561025619506836e-02) (8, 7.07666501402854919434e-02) (9, 2.70305842161178588867e-01) (0, -1.34971946477890014648e-01) (1, -1.45805865526199340820e-01) (2, -2.95361697673797607422e-01) (3, -8.13108533620834350586e-02) (4, -1.11578211188316345215e-01) (5, -1.56689792871475219727e-01) (6, -1.94358378648757934570e-02) (7, -1.66209936141967773438e-01) (8, -1.23502403497695922852e-01) (9, -3.96159946918487548828e-01) (0, -4.32334780693054199219e-01) (1, -4.36352849006652832031e-01) (2, -2.94811427593231201172e-01) (3, 3.49781990051269531250e-01) (4, 3.68806779384613037109e-01) (5, 3.00815939903259277344e-01) (6, 8.60936880111694335938e-01) (7, 7.43669867515563964844e-01) (8, 9.04924035072326660156e-01) (9, 1.68574184179306030273e-01) (0, 6.13104738295078277588e-03) (1, 1.74624636769294738770e-01) (2, 3.97744961082935333252e-02) (3, 7.70823881030082702637e-02) (4, 5.77412731945514678955e-03) (5, -3.64733301103115081787e-02) (6, 3.54916900396347045898e-01) (7, 3.98931980133056640625e-01) (8, 4.35247540473937988281e-01) (9, -4.41803596913814544678e-02) (0, -2.60142892599105834961e-01) (1, -1.23499810695648193359e-01) (2, -2.54779189825057983398e-01) (3, 2.66388356685638427734e-01) (4, 2.68438875675201416016e-01) (5, 3.06892186403274536133e-01) (6, 7.64611363410949707031e-01) (7, 7.44201302528381347656e-01) (8, 8.35880517959594726562e-01) (9, 4.87089067697525024414e-01) (0, -5.13457477092742919922e-01) (1, -4.34209883213043212891e-01) (2, -4.23608839511871337891e-01) (3, -3.68072330951690673828e-01) (4, -3.59322786331176757812e-01) (5, -5.29696881771087646484e-01) (6, 7.72037580609321594238e-02) (7, 1.91579669713973999023e-01) (8, 1.03938519954681396484e-01) (9, -5.49551360309123992920e-02) (0, -3.60790640115737915039e-04) (1, -1.18228748440742492676e-01) (2, -9.35379415750503540039e-04) (3, 3.44637453556060791016e-01) (4, 3.21103066205978393555e-01) (5, 3.67088198661804199219e-01) (6, 5.87236523628234863281e-01) (7, 5.96109867095947265625e-01) (8, 6.86110019683837890625e-01) (9, 2.75263220071792602539e-01) (0, 1.56015545129776000977e-01) (1, 2.12594807147979736328e-01) (2, 2.04650342464447021484e-01) (3, 1.83074101805686950684e-01) (4, 5.66765405237674713135e-02) (5, 2.50782608985900878906e-01) (6, -3.88208962976932525635e-03) (7, -1.58368051052093505859e-01) (8, -1.84672176837921142578e-01) (9, -1.97716549038887023926e-01) (0, 6.10946714878082275391e-02) (1, -5.12143895030021667480e-02) (2, -8.46856683492660522461e-02) (3, -8.95906388759613037109e-01) (4, -9.52679038047790527344e-01) (5, -9.77400720119476318359e-01) (6, 9.89297032356262207031e-01) (7, 9.20070052146911621094e-01) (8, 1.00972425937652587891e+00) (9, -8.20097327232360839844e-02) (0, 6.77778273820877075195e-02) (1, 1.53626590967178344727e-01) (2, 2.48477518558502197266e-01) (3, 5.13321042060852050781e-01) (4, 4.60514247417449951172e-01) (5, 3.31830829381942749023e-01) (6, 3.35317045450210571289e-01) (7, 3.01607161760330200195e-01) (8, 3.81797075271606445312e-01) (9, 1.73543781042098999023e-01) (0, -3.13145250082015991211e-01) (1, -3.44527423381805419922e-01) (2, -3.55096518993377685547e-01) (3, 7.67980694770812988281e-01) (4, 8.93747091293334960938e-01) (5, 7.56780505180358886719e-01) (6, -3.21544557809829711914e-01) (7, -2.00176194310188293457e-01) (8, -2.91628867387771606445e-01) (9, -3.81116628646850585938e-01) (0, -2.44349092245101928711e-02) (1, -5.57544641196727752686e-02) (2, 1.34965945035219192505e-02) (3, -2.82229781150817871094e-01) (4, -2.42815136909484863281e-01) (5, -2.30336666107177734375e-01) (6, -3.06162480264902114868e-02) (7, 1.09158337116241455078e-01) (8, 5.24098873138427734375e-02) (9, -1.88602693378925323486e-02) (0, 9.31155562400817871094e-01) (1, 9.53979969024658203125e-01) (2, 8.79939377307891845703e-01) (3, 9.27283763885498046875e-01) (4, 9.46974515914916992188e-01) (5, 8.20126950740814208984e-01) (6, -2.09361642599105834961e-01) (7, -3.46819430589675903320e-01) (8, -3.07376831769943237305e-01) (9, 3.86910378932952880859e-01) (0, -5.09625017642974853516e-01) (1, -4.48479861021041870117e-01) (2, -4.81011152267456054688e-01) (3, -4.96186465024948120117e-01) (4, -4.21283006668090820312e-01) (5, -5.28047859668731689453e-01) (6, 5.75151205062866210938e-01) (7, 6.57918930053710937500e-01) (8, 6.72522425651550292969e-01) (9, 4.41282801330089569092e-02) (0, 1.53514668345451354980e-01) (1, -2.32322886586189270020e-02) (2, 1.01853460073471069336e-01) (3, 1.17573767900466918945e-01) (4, 1.16004988551139831543e-01) (5, 8.05053338408470153809e-02) (6, 1.61063447594642639160e-02) (7, -3.50059494376182556152e-02) (8, -1.30730986595153808594e-01) (9, -4.28707301616668701172e-01) (0, -2.08894908428192138672e-01) (1, -1.52126491069793701172e-01) (2, -2.39993155002593994141e-01) (3, 6.90397843718528747559e-02) (4, -2.68473923206329345703e-02) (5, -9.50233638286590576172e-02) (6, -2.05395177006721496582e-01) (7, -1.82621449232101440430e-01) (8, -1.88255190849304199219e-01) (9, -2.70000934600830078125e-01) (0, 2.39679422229528427124e-02) (1, 1.37279834598302841187e-02) (2, 1.02426081895828247070e-01) (3, 6.00608408451080322266e-01) (4, 5.75193107128143310547e-01) (5, 5.38794696331024169922e-01) (6, 9.60494458675384521484e-01) (7, 9.82937157154083251953e-01) (8, 8.29306364059448242188e-01) (9, 7.65477657318115234375e-01) (0, -1.21164798736572265625e-01) (1, -2.10467770695686340332e-01) (2, -9.02826637029647827148e-02) (3, 5.36511503159999847412e-02) (4, 9.79270637035369873047e-02) (5, 1.65433827787637710571e-02) (6, 4.86205250024795532227e-01) (7, 4.76538509130477905273e-01) (8, 5.44042468070983886719e-01) (9, 5.62403976917266845703e-01) (0, -8.16846191883087158203e-02) (1, -2.25182220339775085449e-01) (2, -1.95704743266105651855e-01) (3, 8.65902483463287353516e-01) (4, 8.37362706661224365234e-01) (5, 9.70952987670898437500e-01) (6, 1.15023016929626464844e-01) (7, 7.45934396982192993164e-02) (8, 3.09575218707323074341e-02) (9, 4.23251181840896606445e-01) (0, -4.28039789199829101562e-01) (1, -4.50051069259643554688e-01) (2, -5.42325139045715332031e-01) (3, 7.12780058383941650391e-01) (4, 6.79862201213836669922e-01) (5, 7.62172758579254150391e-01) (6, 4.85427170991897583008e-01) (7, 3.34837734699249267578e-01) (8, 4.39591139554977416992e-01) (9, 2.33191072940826416016e-01) (0, -2.84049570560455322266e-01) (1, -4.00448203086853027344e-01) (2, -4.03958916664123535156e-01) (3, 3.77660274505615234375e-01) (4, 3.65195512771606445312e-01) (5, 4.05960619449615478516e-01) (6, 7.33624994754791259766e-01) (7, 7.89594352245330810547e-01) (8, 6.20692670345306396484e-01) (9, 1.19472488760948181152e-01) (0, -5.96062690019607543945e-02) (1, 5.11342734098434448242e-02) (2, -3.97151336073875427246e-02) (3, 9.42303389310836791992e-02) (4, -3.25359124690294265747e-03) (5, 7.73571580648422241211e-02) (6, -4.92830649018287658691e-02) (7, -2.31673438102006912231e-02) (8, -1.82986155152320861816e-01) (9, 8.35107713937759399414e-02) (0, 6.30509182810783386230e-02) (1, 9.03553813695907592773e-02) (2, 1.64545401930809020996e-02) (3, -8.95965397357940673828e-02) (4, -1.86470642685890197754e-01) (5, -9.32894349098205566406e-02) (6, -1.29627645015716552734e-01) (7, 1.29211936146020889282e-02) (8, -4.44870069622993469238e-02) (9, 8.72408598661422729492e-02) (0, 1.15581914782524108887e-01) (1, 4.51635010540485382080e-03) (2, 1.26989275217056274414e-01) (3, -1.70580431818962097168e-01) (4, -1.51182087138295173645e-02) (5, -1.05110079050064086914e-01) (6, -3.55012118816375732422e-02) (7, -9.48948860168457031250e-02) (8, -1.28917366266250610352e-01) (9, 8.61629545688629150391e-02) (0, -3.99697780609130859375e-01) (1, -4.05041813850402832031e-01) (2, -3.97607445716857910156e-01) (3, 6.84081494808197021484e-01) (4, 7.36893475055694580078e-01) (5, 6.46843850612640380859e-01) (6, 5.13691067695617675781e-01) (7, 3.58249336481094360352e-01) (8, 4.94315534830093383789e-01) (9, 2.25320219993591308594e-01) (0, -6.59603327512741088867e-02) (1, -1.85812562704086303711e-01) (2, -1.35311216115951538086e-01) (3, 2.87601023912429809570e-01) (4, 4.19556289911270141602e-01) (5, 3.73183518648147583008e-01) (6, 8.70940327644348144531e-01) (7, 7.37013697624206542969e-01) (8, 8.33189845085144042969e-01) (9, 4.24320250749588012695e-01) (0, 9.37818586826324462891e-01) (1, 8.62335741519927978516e-01) (2, 9.05811131000518798828e-01) (3, 4.76977527141571044922e-01) (4, 4.26324963569641113281e-01) (5, 4.25262570381164550781e-01) (6, -1.16869933903217315674e-01) (7, -1.01927109062671661377e-01) (8, 3.76168414950370788574e-02) (9, 4.21920716762542724609e-01) (0, -1.16077169775962829590e-01) (1, 1.67212840169668197632e-02) (2, -8.52193012833595275879e-02) (3, 8.59142959117889404297e-01) (4, 8.94346475601196289062e-01) (5, 8.45217883586883544922e-01) (6, 1.95509701967239379883e-01) (7, 2.13728994131088256836e-01) (8, 2.09158748388290405273e-01) (9, -1.16965308785438537598e-01) (0, 5.37100791931152343750e-01) (1, 5.25199294090270996094e-01) (2, 3.70434552431106567383e-01) (3, 4.42644596099853515625e-01) (4, 3.49510967731475830078e-01) (5, 3.26701521873474121094e-01) (6, -3.13100397586822509766e-01) (7, -1.94284975528717041016e-01) (8, -3.51020991802215576172e-01) (9, 3.89672398567199707031e-01) (0, 3.03965568542480468750e-01) (1, 4.52174365520477294922e-01) (2, 3.18412482738494873047e-01) (3, 2.65767425298690795898e-01) (4, 2.41393968462944030762e-01) (5, 2.56979525089263916016e-01) (6, -3.58955860137939453125e-01) (7, -2.45903357863426208496e-01) (8, -4.15374994277954101562e-01) (9, -2.49471977353096008301e-01) (0, 5.89635431766510009766e-01) (1, 5.31800448894500732422e-01) (2, 5.19912302494049072266e-01) (3, -2.59611517190933227539e-01) (4, -1.98375612497329711914e-01) (5, -3.75060200691223144531e-01) (6, 1.91944226622581481934e-01) (7, 2.82201498746871948242e-01) (8, 1.23736195266246795654e-01) (9, 2.11927801370620727539e-01) (0, 5.77395021915435791016e-01) (1, 4.60345953702926635742e-01) (2, 5.09260892868041992188e-01) (3, -1.79463461041450500488e-01) (4, -2.04595014452934265137e-01) (5, -2.48813748359680175781e-01) (6, -2.92853713035583496094e-01) (7, -2.72440433502197265625e-01) (8, -3.97843599319458007812e-01) (9, -8.90027582645416259766e-02) (0, 6.37900888919830322266e-01) (1, 5.85854113101959228516e-01) (2, 6.55097544193267822266e-01) (3, 4.23115789890289306641e-02) (4, -9.29033756256103515625e-02) (5, -4.80333566665649414062e-02) (6, -2.82694727182388305664e-01) (7, -3.02140235900878906250e-01) (8, -3.44217777252197265625e-01) (9, 5.86489439010620117188e-01) (0, 9.90554451942443847656e-01) (1, 9.64932858943939208984e-01) (2, 9.81584072113037109375e-01) (3, -7.68874883651733398438e-02) (4, 1.20062585920095443726e-02) (5, 8.98933857679367065430e-02) (6, -2.61320173740386962891e-01) (7, -1.07039734721183776855e-01) (8, -1.38895303010940551758e-01) (9, 3.83413620293140411377e-02) (0, 6.51560485363006591797e-01) (1, 6.75049841403961181641e-01) (2, 6.46830618381500244141e-01) (3, -9.22420263290405273438e-01) (4, -9.98350918292999267578e-01) (5, -8.51701617240905761719e-01) (6, 3.12186986207962036133e-01) (7, 1.14027135074138641357e-01) (8, 2.81089633703231811523e-01) (9, 2.96913385391235351562e-01) (0, -1.06154531240463256836e-01) (1, -1.76957845687866210938e-01) (2, -1.34614497423171997070e-01) (3, 3.17443132400512695312e-01) (4, 2.75012195110321044922e-01) (5, 1.82140484452247619629e-01) (6, -3.15848886966705322266e-01) (7, -3.14321935176849365234e-01) (8, -2.26639151573181152344e-01) (9, -5.43249249458312988281e-02) (0, -5.37212073802947998047e-01) (1, -4.13661360740661621094e-01) (2, -4.44372296333312988281e-01) (3, -3.51707875728607177734e-01) (4, -4.04177367687225341797e-01) (5, -5.45994460582733154297e-01) (6, 2.43912070989608764648e-01) (7, 2.38737732172012329102e-01) (8, 2.51201063394546508789e-01) (9, -1.17796517908573150635e-01) (0, -5.63498288393020629883e-02) (1, -2.87895444780588150024e-02) (2, 1.33395582437515258789e-01) (3, 4.97920900583267211914e-01) (4, 5.89493095874786376953e-01) (5, 4.75747644901275634766e-01) (6, 8.17204475402832031250e-01) (7, 9.28569912910461425781e-01) (8, 8.16664636135101318359e-01) (9, 8.25051903724670410156e-01) (0, -5.46344697475433349609e-01) (1, -5.35375177860260009766e-01) (2, -4.37030434608459472656e-01) (3, -7.72700607776641845703e-02) (4, -7.41824358701705932617e-02) (5, -2.18268528580665588379e-01) (6, 5.94282746315002441406e-01) (7, 4.34358596801757812500e-01) (8, 4.91799414157867431641e-01) (9, -1.22614711523056030273e-01) (0, 2.31957510113716125488e-01) (1, 1.65411606431007385254e-01) (2, 1.31872296333312988281e-01) (3, -2.45578587055206298828e-02) (4, 1.56060140579938888550e-03) (5, 1.15551888942718505859e-01) (6, 5.62809705734252929688e-01) (7, 5.59479713439941406250e-01) (8, 6.68296694755554199219e-01) (9, -4.15811799466609954834e-02) (0, 9.67885673046112060547e-01) (1, 9.60358202457427978516e-01) (2, 8.62840116024017333984e-01) (3, 5.07677972316741943359e-01) (4, 3.55586856603622436523e-01) (5, 3.49640995264053344727e-01) (6, -2.11652636528015136719e-01) (7, -3.61658155918121337891e-01) (8, -2.56238639354705810547e-01) (9, 3.60761046409606933594e-01) (0, 2.20063492655754089355e-01) (1, 3.31238597631454467773e-01) (2, 2.14108392596244812012e-01) (3, 4.22964006662368774414e-01) (4, 3.82237881422042846680e-01) (5, 4.68195319175720214844e-01) (6, 1.23126029968261718750e-01) (7, 3.76270115375518798828e-02) (8, -3.63397374749183654785e-02) (9, 1.01624771952629089355e-01) (0, 7.06277668476104736328e-01) (1, 6.67297422885894775391e-01) (2, 6.31593525409698486328e-01) (3, -1.27885088324546813965e-01) (4, -1.62589758634567260742e-01) (5, -1.72175049781799316406e-01) (6, -4.22886610031127929688e-01) (7, -3.95132958889007568359e-01) (8, -4.08048272132873535156e-01) (9, 1.51491120457649230957e-01) (0, 8.76975595951080322266e-01) (1, 7.99426257610321044922e-01) (2, 9.38578665256500244141e-01) (3, 1.94845236837863922119e-02) (4, 3.94861996173858642578e-02) (5, 2.65474338084459304810e-02) (6, 5.25225847959518432617e-02) (7, 5.63299804925918579102e-02) (8, -1.06614395976066589355e-01) (9, 5.42536556720733642578e-01) (0, 1.75684347748756408691e-01) (1, 3.18824239075183868408e-02) (2, 4.76885363459587097168e-02) (3, 2.70843267440795898438e-01) (4, 2.44528710842132568359e-01) (5, 4.19608682394027709961e-01) (6, 7.21692204475402832031e-01) (7, 8.68778824806213378906e-01) (8, 7.58359789848327636719e-01) (9, -4.48764711618423461914e-01) (0, 4.55705672502517700195e-01) (1, 5.02697646617889404297e-01) (2, 6.34285628795623779297e-01) (3, -2.12793886661529541016e-01) (4, -2.41930186748504638672e-01) (5, -1.45046845078468322754e-01) (6, -7.35550373792648315430e-02) (7, -6.48284107446670532227e-02) (8, -1.40191420912742614746e-01) (9, -9.33237075805664062500e-02) (0, 3.06991815567016601562e-01) (1, 3.34304153919219970703e-01) (2, 1.76479145884513854980e-01) (3, 5.49438059329986572266e-01) (4, 5.81907689571380615234e-01) (5, 6.44084393978118896484e-01) (6, 3.46448093652725219727e-01) (7, 3.78129214048385620117e-01) (8, 4.44113254547119140625e-01) (9, 7.20655798912048339844e-01) (0, 7.85019695758819580078e-02) (1, 2.20193743705749511719e-01) (2, 1.95067584514617919922e-01) (3, 1.51181042194366455078e-01) (4, 2.51450419425964355469e-01) (5, 2.00009688735008239746e-01) (6, -3.55248868465423583984e-01) (7, -4.10444378852844238281e-01) (8, -3.14798474311828613281e-01) (9, -1.87429606914520263672e-01) (0, -3.70171368122100830078e-02) (1, 3.65575775504112243652e-02) (2, 1.00328788161277770996e-01) (3, 7.91774317622184753418e-02) (4, 9.49771553277969360352e-02) (5, 1.29612088203430175781e-01) (6, -7.24136084318161010742e-03) (7, 1.41198053956031799316e-01) (8, -1.54403895139694213867e-02) (9, -4.63177785277366638184e-02) (0, -3.95839631557464599609e-01) (1, -3.97071540355682373047e-01) (2, -5.01278102397918701172e-01) (3, -7.92778730392456054688e-02) (4, -1.85950919985771179199e-01) (5, -5.76878897845745086670e-02) (6, 5.95251142978668212891e-01) (7, 5.70198178291320800781e-01) (8, 5.30142366886138916016e-01) (9, -1.11781835556030273438e-01) (0, 3.62108618021011352539e-01) (1, 4.58364993333816528320e-01) (2, 4.38556224107742309570e-01) (3, 9.59766030311584472656e-01) (4, 8.08140575885772705078e-01) (5, 8.88601303100585937500e-01) (6, -5.49284517765045166016e-01) (7, -5.73711574077606201172e-01) (8, -5.48446595668792724609e-01) (9, 3.66483658552169799805e-01) (0, -1.33891463279724121094e-01) (1, 6.74629770219326019287e-03) (2, -6.97716139256954193115e-03) (3, 1.00255846977233886719e-01) (4, 8.78544151782989501953e-02) (5, 8.99306535720825195312e-02) (6, 1.05258613824844360352e-01) (7, 3.67012172937393188477e-02) (8, 1.87216922640800476074e-01) (9, 6.80277273058891296387e-02) (0, -2.73593246936798095703e-01) (1, -2.54913806915283203125e-01) (2, -3.22025835514068603516e-01) (3, 8.83010149002075195312e-01) (4, 8.12028408050537109375e-01) (5, 8.38243365287780761719e-01) (6, -2.23965838551521301270e-01) (7, -3.22432309389114379883e-01) (8, -3.21270316839218139648e-01) (9, -4.08393919467926025391e-01) (0, -1.69656276702880859375e-01) (1, -2.74871408939361572266e-01) (2, -1.94690942764282226562e-01) (3, -1.25823304057121276855e-01) (4, -1.62541925907135009766e-01) (5, -3.39867174625396728516e-02) (6, -7.35872387886047363281e-02) (7, -9.32499840855598449707e-02) (8, -1.89121887087821960449e-01) (9, -3.70234727859497070312e-01) (0, 9.35337424278259277344e-01) (1, 8.31817686557769775391e-01) (2, 7.98405349254608154297e-01) (3, 4.25007760524749755859e-01) (4, 3.77611339092254638672e-01) (5, 5.31797528266906738281e-01) (6, -2.73752868175506591797e-01) (7, -2.30390951037406921387e-01) (8, -1.44762039184570312500e-01) (9, 3.74087780714035034180e-01) (0, -1.36007487773895263672e-01) (1, -5.04549965262413024902e-02) (2, 1.31947919726371765137e-04) (3, 5.04691362380981445312e-01) (4, 4.85960900783538818359e-01) (5, 4.65565949678421020508e-01) (6, 5.95694422721862792969e-01) (7, 6.00944042205810546875e-01) (8, 4.82082724571228027344e-01) (9, 8.04896473884582519531e-01) (10, 6.37757420539855957031e-01) (11, 4.63831394910812377930e-01) (12, 1.94948494434356689453e-01) (13, -7.88049101829528808594e-02) (14, -4.78324852883815765381e-03) (15, -2.25073710083961486816e-01) (16, -4.97135192155838012695e-01) (17, 6.38014197349548339844e-01) (18, 6.14164471626281738281e-01) (19, -3.33203673362731933594e-01) (20, -1.55387312173843383789e-01) (21, -6.93086743354797363281e-01) (22, 9.29359197616577148438e-02) (23, 3.70962709188461303711e-01) (24, 1.30676059052348136902e-02) (25, 8.56842160224914550781e-01) (26, 1.96019738912582397461e-01) (27, -7.53404293209314346313e-03) (28, -2.23728135228157043457e-01) (29, 2.73472163826227188110e-02) (30, -2.08045065402984619141e-01) (31, -2.09881588816642761230e-01) (32, -1.55539199709892272949e-01) (33, -1.83506503701210021973e-01) (34, -1.60812780261039733887e-01) (35, 9.20570343732833862305e-02) (36, -2.48115614056587219238e-01) (37, -5.23764073848724365234e-01) (38, -3.49881052970886230469e-02) (39, -5.04124104976654052734e-01) (40, 1.25819649547338485718e-02) (41, -5.11778056621551513672e-01) (42, 3.64051520824432373047e-01) (43, 3.12566101551055908203e-01) (44, 9.15325712412595748901e-03) (45, -1.72414138913154602051e-01) (46, 7.32176721096038818359e-01) (47, -6.20003417134284973145e-03) (48, -7.95288980007171630859e-02) (49, 1.93836003541946411133e-01) (50, -1.99103102087974548340e-01) (51, 1.62549272179603576660e-01) (52, 8.23085606098175048828e-02) (53, -1.30841389298439025879e-01) (54, -7.03849911689758300781e-01) (55, -1.33089676499366760254e-01) (56, 1.69217258691787719727e-01) (57, 1.99909254908561706543e-01) (58, 1.99117019772529602051e-01) (59, -7.70691633224487304688e-01) (60, -4.91322845220565795898e-01) (61, 1.52386441826820373535e-01) (62, 1.83402806520462036133e-01) (63, 1.77111104130744934082e-01) (64, 2.28430613875389099121e-01) (65, -4.42172028124332427979e-02) (66, 1.05095005035400390625e+00) (67, 1.83319583535194396973e-01) (68, 4.75615352392196655273e-01) (69, -5.60527816414833068848e-02) (70, 3.53510856628417968750e-01) (71, 1.10183935612440109253e-02) (72, 1.50467142462730407715e-01) (73, -3.74731779098510742188e-01) (74, -6.90786242485046386719e-02) (75, 1.41615681350231170654e-02) (76, -2.95980751514434814453e-01) (77, 8.47402930259704589844e-01) (78, 8.30020904541015625000e-01) (79, -1.14717513322830200195e-01) (80, 1.60643148422241210938e+00) (81, 1.15095712244510650635e-01) (82, 3.80635648965835571289e-01) (83, -3.08560766279697418213e-03) (84, 9.28498506546020507812e-02) (85, -1.42798684537410736084e-02) (86, -3.66380393505096435547e-01) (87, -1.93638756871223449707e-01) (88, -2.62841492891311645508e-01) (89, -8.63914638757705688477e-02) (90, 1.94582790136337280273e-01) (91, 5.55432200431823730469e-01) (10, 1.76676586270332336426e-01) (11, 2.43706721812486648560e-02) (12, 2.38339409232139587402e-01) (13, 3.98411542177200317383e-01) (14, 7.58725225925445556641e-01) (15, 6.38200998306274414062e-01) (16, 2.63021677732467651367e-01) (17, 9.17378813028335571289e-02) (18, 1.26741483807563781738e-01) (19, 2.80664741992950439453e-01) (20, 1.93117037415504455566e-01) (21, 1.86659693717956542969e-01) (22, 9.43107306957244873047e-02) (23, 9.47860896587371826172e-01) (24, 4.48089241981506347656e-02) (25, 7.50456094741821289062e-01) (26, -3.91044914722442626953e-02) (27, 5.71428000926971435547e-01) (28, 5.97079455852508544922e-01) (29, 3.48030589520931243896e-03) (30, 3.19010108709335327148e-01) (31, 6.62136137485504150391e-01) (32, 7.55673587322235107422e-01) (33, 9.79455530643463134766e-01) (34, 5.45332551002502441406e-01) (35, -1.54627859592437744141e-01) (36, 2.29515671730041503906e-01) (37, 1.20697125792503356934e-01) (38, -5.29096573591232299805e-02) (39, -1.93016696721315383911e-02) (40, -1.31561607122421264648e-02) (41, -4.36723902821540832520e-02) (42, 1.56781360507011413574e-01) (43, -4.85808819532394409180e-01) (44, -4.00435030460357666016e-01) (45, 5.86670517921447753906e-01) (46, 2.35721334815025329590e-01) (47, 4.14831638336181640625e-02) (48, -2.04642452299594879150e-02) (49, 6.40628576278686523438e-01) (50, 2.52159386873245239258e-01) (51, 4.38042581081390380859e-01) (52, 9.06347110867500305176e-03) (53, 6.08787477016448974609e-01) (54, 9.32744890451431274414e-03) (55, 1.18133738636970520020e-01) (56, 2.70388990640640258789e-01) (57, 4.23774123191833496094e-01) (58, 2.55385160446166992188e-01) (59, 1.97400078177452087402e-02) (60, -1.80812645703554153442e-02) (61, 4.57393974065780639648e-01) (62, 1.11917436122894287109e+00) (63, 4.60825353860855102539e-01) (64, 1.95837184786796569824e-01) (65, -2.65686661005020141602e-01) (66, 2.81073562800884246826e-02) (67, 1.75778612494468688965e-01) (68, 6.49020150303840637207e-02) (69, -2.93351918458938598633e-01) (70, 1.88459706306457519531e+00) (71, -1.82426795363426208496e-02) (72, 4.10749733448028564453e-01) (73, 3.19781988859176635742e-01) (74, -2.59246565401554107666e-02) (75, -1.07988007366657257080e-02) (76, -1.29725178703665733337e-03) (77, 1.81116446852684020996e-01) (78, 4.09346729516983032227e-01) (79, -1.05266533792018890381e-01) (80, 1.37770086526870727539e-01) (81, 4.34757649898529052734e-01) (82, 3.59681516885757446289e-01) (83, -6.65648505091667175293e-02) (84, 3.79323989152908325195e-01) (85, 6.89134523272514343262e-02) (86, 3.92528474330902099609e-01) (87, 5.78544080257415771484e-01) (88, 2.95868605375289916992e-01) (89, 9.56857576966285705566e-03) (90, 3.75860273838043212891e-01) (91, 1.41937673091888427734e-01) (10, 8.14335644245147705078e-02) (11, -4.61554706096649169922e-01) (12, 4.25478070974349975586e-01) (13, 6.24347031116485595703e-02) (14, -1.51301696896553039551e-01) (15, -5.87399750947952270508e-02) (16, 2.80328601598739624023e-01) (17, 6.04679286479949951172e-01) (18, 5.90750038623809814453e-01) (19, -2.74586707353591918945e-01) (20, 2.30482950806617736816e-01) (21, -1.33411303162574768066e-01) (22, 3.22605147957801818848e-02) (23, 3.29035699367523193359e-01) (24, -5.25860130786895751953e-01) (25, 1.86379123479127883911e-02) (26, 3.18083643913269042969e-01) (27, 8.42799305915832519531e-01) (28, -2.42625966668128967285e-01) (29, 9.08446133136749267578e-01) (30, -2.67928987741470336914e-01) (31, -1.26579478383064270020e-01) (32, -2.21428632736206054688e-01) (33, 3.84622305631637573242e-01) (34, -2.15380981564521789551e-01) (35, -5.98990581929683685303e-02) (36, -2.42218181490898132324e-01) (37, -8.76721590757369995117e-02) (38, 2.19948664307594299316e-01) (39, 3.08063477277755737305e-01) (40, 9.04583454132080078125e-01) (41, 1.98949396610260009766e-01) (42, -2.27380946278572082520e-01) (43, 9.86694872379302978516e-01) (44, -8.02939832210540771484e-02) (45, -2.67594069242477416992e-01) (46, 4.29639011621475219727e-01) (47, -5.45125901699066162109e-01) (48, 9.79659557342529296875e-01) (49, 3.70410025119781494141e-01) (50, -2.71149933338165283203e-01) (51, 5.88462650775909423828e-01) (52, 5.80512106418609619141e-01) (53, -4.81995522975921630859e-01) (54, -2.64622092247009277344e-01) (55, -8.36654156446456909180e-02) (56, 3.15605074167251586914e-01) (57, 3.05275321006774902344e-01) (58, 3.00144404172897338867e-01) (59, -2.80609011650085449219e-01) (60, 2.74870395660400390625e-01) (61, 9.82887893915176391602e-02) (62, -1.58441483974456787109e-01) (63, 3.68889532983303070068e-02) (64, -1.51747167110443115234e-01) (65, -1.37687519192695617676e-01) (66, 1.13860614597797393799e-01) (67, 5.99873922765254974365e-02) (68, -5.00120103359222412109e-01) (69, -1.61068383604288101196e-02) (70, -1.39673855155706405640e-02) (71, 9.53025877475738525391e-01) (72, 5.72269737720489501953e-01) (73, 9.04145359992980957031e-01) (74, 1.77905350923538208008e-01) (75, -4.69664752483367919922e-01) (76, -9.99562293291091918945e-02) (77, 3.69323305785655975342e-02) (78, 8.54336172342300415039e-02) (79, 2.23891153931617736816e-01) (80, 1.74582958221435546875e-01) (81, 5.57637155055999755859e-01) (82, -2.37465128302574157715e-01) (83, 1.50776565074920654297e-01) (84, 9.70305144786834716797e-01) (85, -5.37613809108734130859e-01) (86, 1.25741958618164062500e-01) (87, -2.40142002701759338379e-01) (88, -2.48999461531639099121e-01) (89, -5.37271559238433837891e-01) (90, 6.42263948917388916016e-01) (91, 6.46344363689422607422e-01) 
