FANN_FLO_2.1
num_layers=3
learning_rate=0.700000
connection_rate=1.000000
network_type=0
learning_momentum=0.500000
training_algorithm=2
train_error_function=1
train_stop_function=0
cascade_output_change_fraction=0.010000
quickprop_decay=-0.000100
quickprop_mu=1.750000
rprop_increase_factor=1.200000
rprop_decrease_factor=0.500000
rprop_delta_min=0.000000
rprop_delta_max=50.000000
rprop_delta_zero=0.100000
cascade_output_stagnation_epochs=12
cascade_candidate_change_fraction=0.010000
cascade_candidate_stagnation_epochs=12
cascade_max_out_epochs=150
cascade_min_out_epochs=50
cascade_max_cand_epochs=150
cascade_min_cand_epochs=50
cascade_num_candidate_groups=2
bit_fail_limit=3.49999994039535522461e-01
cascade_candidate_limit=1.00000000000000000000e+03
cascade_weight_multiplier=4.00000005960464477539e-01
cascade_activation_functions_count=10
cascade_activation_functions=3 5 7 8 10 11 14 15 16 17 
cascade_activation_steepnesses_count=4
cascade_activation_steepnesses=2.50000000000000000000e-01 5.00000000000000000000e-01 7.50000000000000000000e-01 1.00000000000000000000e+00 
layer_sizes=257 129 9 
scale_included=0
neurons (num_inputs, activation_function, activation_steepness)=(0, 0, 0.00000000000000000000e+00) (0, 0, 0.00000000000000000000e+00) (0, 0, 0.00000000000000000000e+00) (0, 0, 0.00000000000000000000e+00) (0, 0, 0.00000000000000000000e+00) (0, 0, 0.00000000000000000000e+00) (0, 0, 0.00000000000000000000e+00) (0, 0, 0.00000000000000000000e+00) (0, 0, 0.00000000000000000000e+00) (0, 0, 0.00000000000000000000e+00) (0, 0, 0.00000000000000000000e+00) (0, 0, 0.00000000000000000000e+00) (0, 0, 0.00000000000000000000e+00) (0, 0, 0.00000000000000000000e+00) (0, 0, 0.00000000000000000000e+00) (0, 0, 0.00000000000000000000e+00) (0, 0, 0.00000000000000000000e+00) (0, 0, 0.00000000000000000000e+00) (0, 0, 0.00000000000000000000e+00) (0, 0, 0.00000000000000000000e+00) (0, 0, 0.00000000000000000000e+00) (0, 0, 0.00000000000000000000e+00) (0, 0, 0.00000000000000000000e+00) (0, 0, 0.00000000000000000000e+00) (0, 0, 0.00000000000000000000e+00) (0, 0, 0.00000000000000000000e+00) (0, 0, 0.00000000000000000000e+00) (0, 0, 0.00000000000000000000e+00) (0, 0, 0.00000000000000000000e+00) (0, 0, 0.00000000000000000000e+00) (0, 0, 0.00000000000000000000e+00) (0, 0, 0.00000000000000000000e+00) (0, 0, 0.00000000000000000000e+00) (0, 0, 0.00000000000000000000e+00) (0, 0, 0.00000000000000000000e+00) (0, 0, 0.00000000000000000000e+00) (0, 0, 0.00000000000000000000e+00) (0, 0, 0.00000000000000000000e+00) (0, 0, 0.00000000000000000000e+00) (0, 0, 0.00000000000000000000e+00) (0, 0, 0.00000000000000000000e+00) (0, 0, 0.00000000000000000000e+00) (0, 0, 0.00000000000000000000e+00) (0, 0, 0.00000000000000000000e+00) (0, 0, 0.00000000000000000000e+00) (0, 0, 0.00000000000000000000e+00) (0, 0, 0.00000000000000000000e+00) (0, 0, 0.00000000000000000000e+00) (0, 0, 0.00000000000000000000e+00) (0, 0, 0.00000000000000000000e+00) (0, 0, 0.00000000000000000000e+00) (0, 0, 0.00000000000000000000e+00) (0, 0, 0.00000000000000000000e+00) (0, 0, 0.00000000000000000000e+00) (0, 0, 0.00000000000000000000e+00) (0, 0, 0.00000000000000000000e+00) (0, 0, 0.00000000000000000000e+00) (0, 0, 0.00000000000000000000e+00) (0, 0, 0.00000000000000000000e+00) (0, 0, 0.00000000000000000000e+00) (0, 0, 0.00000000000000000000e+00) (0, 0, 0.00000000000000000000e+00) (0, 0, 0.00000000000000000000e+00) (0, 0, 0.00000000000000000000e+00) (0, 0, 0.00000000000000000000e+00) (0, 0, 0.00000000000000000000e+00) (0, 0, 0.00000000000000000000e+00) (0, 0, 0.00000000000000000000e+00) (0, 0, 0.00000000000000000000e+00) (0, 0, 0.00000000000000000000e+00) (0, 0, 0.00000000000000000000e+00) (0, 0, 0.00000000000000000000e+00) (0, 0, 0.00000000000000000000e+00) (0, 0, 0.00000000000000000000e+00) (0, 0, 0.00000000000000000000e+00) (0, 0, 0.00000000000000000000e+00) (0, 0, 0.00000000000000000000e+00) (0, 0, 0.00000000000000000000e+00) (0, 0, 0.00000000000000000000e+00) (0, 0, 0.00000000000000000000e+00) (0, 0, 0.00000000000000000000e+00) (0, 0, 0.00000000000000000000e+00) (0, 0, 0.00000000000000000000e+00) (0, 0, 0.00000000000000000000e+00) (0, 0, 0.00000000000000000000e+00) (0, 0, 0.00000000000000000000e+00) (0, 0, 0.00000000000000000000e+00) (0, 0, 0.00000000000000000000e+00) (0, 0, 0.00000000000000000000e+00) (0, 0, 0.00000000000000000000e+00) (0, 0, 0.00000000000000000000e+00) (0, 0, 0.00000000000000000000e+00) (0, 0, 0.00000000000000000000e+00) (0, 0, 0.00000000000000000000e+00) (0, 0, 0.00000000000000000000e+00) (0, 0, 0.00000000000000000000e+00) (0, 0, 0.00000000000000000000e+00) (0, 0, 0.00000000000000000000e+00) (0, 0, 0.00000000000000000000e+00) (0, 0, 0.00000000000000000000e+00) (0, 0, 0.00000000000000000000e+00) (0, 0, 0.00000000000000000000e+00) (0, 0, 0.00000000000000000000e+00) (0, 0, 0.00000000000000000000e+00) (0, 0, 0.00000000000000000000e+00) (0, 0, 0.00000000000000000000e+00) (0, 0, 0.00000000000000000000e+00) (0, 0, 0.00000000000000000000e+00) (0, 0, 0.00000000000000000000e+00) (0, 0, 0.00000000000000000000e+00) (0, 0, 0.00000000000000000000e+00) (0, 0, 0.00000000000000000000e+00) (0, 0, 0.00000000000000000000e+00) (0, 0, 0.00000000000000000000e+00) (0, 0, 0.00000000000000000000e+00) (0, 0, 0.00000000000000000000e+00) (0, 0, 0.00000000000000000000e+00) (0, 0, 0.00000000000000000000e+00) (0, 0, 0.00000000000000000000e+00) (0, 0, 0.00000000000000000000e+00) (0, 0, 0.00000000000000000000e+00) (0, 0, 0.00000000000000000000e+00) (0, 0, 0.00000000000000000000e+00) (0, 0, 0.00000000000000000000e+00) (0, 0, 0.00000000000000000000e+00) (0, 0, 0.00000000000000000000e+00) (0, 0, 0.00000000000000000000e+00) (0, 0, 0.00000000000000000000e+00) (0, 0, 0.00000000000000000000e+00) (0, 0, 0.00000000000000000000e+00) (0, 0, 0.00000000000000000000e+00) (0, 0, 0.00000000000000000000e+00) (0, 0, 0.00000000000000000000e+00) (0, 0, 0.00000000000000000000e+00) (0, 0, 0.00000000000000000000e+00) (0, 0, 0.00000000000000000000e+00) (0, 0, 0.00000000000000000000e+00) (0, 0, 0.00000000000000000000e+00) (0, 0, 0.00000000000000000000e+00) (0, 0, 0.00000000000000000000e+00) (0, 0, 0.00000000000000000000e+00) (0, 0, 0.00000000000000000000e+00) (0, 0, 0.00000000000000000000e+00) (0, 0, 0.00000000000000000000e+00) (0, 0, 0.00000000000000000000e+00) (0, 0, 0.00000000000000000000e+00) (0, 0, 0.00000000000000000000e+00) (0, 0, 0.00000000000000000000e+00) (0, 0, 0.00000000000000000000e+00) (0, 0, 0.00000000000000000000e+00) (0, 0, 0.00000000000000000000e+00) (0, 0, 0.00000000000000000000e+00) (0, 0, 0.00000000000000000000e+00) (0, 0, 0.00000000000000000000e+00) (0, 0, 0.00000000000000000000e+00) (0, 0, 0.00000000000000000000e+00) (0, 0, 0.00000000000000000000e+00) (0, 0, 0.00000000000000000000e+00) (0, 0, 0.00000000000000000000e+00) (0, 0, 0.00000000000000000000e+00) (0, 0, 0.00000000000000000000e+00) (0, 0, 0.00000000000000000000e+00) (0, 0, 0.00000000000000000000e+00) (0, 0, 0.00000000000000000000e+00) (0, 0, 0.00000000000000000000e+00) (0, 0, 0.00000000000000000000e+00) (0, 0, 0.00000000000000000000e+00) (0, 0, 0.00000000000000000000e+00) (0, 0, 0.00000000000000000000e+00) (0, 0, 0.00000000000000000000e+00) (0, 0, 0.00000000000000000000e+00) (0, 0, 0.00000000000000000000e+00) (0, 0, 0.00000000000000000000e+00) (0, 0, 0.00000000000000000000e+00) (0, 0, 0.00000000000000000000e+00) (0, 0, 0.00000000000000000000e+00) (0, 0, 0.00000000000000000000e+00) (0, 0, 0.00000000000000000000e+00) (0, 0, 0.00000000000000000000e+00) (0, 0, 0.00000000000000000000e+00) (0, 0, 0.00000000000000000000e+00) (0, 0, 0.00000000000000000000e+00) (0, 0, 0.00000000000000000000e+00) (0, 0, 0.00000000000000000000e+00) (0, 0, 0.00000000000000000000e+00) (0, 0, 0.00000000000000000000e+00) (0, 0, 0.00000000000000000000e+00) (0, 0, 0.00000000000000000000e+00) (0, 0, 0.00000000000000000000e+00) (0, 0, 0.00000000000000000000e+00) (0, 0, 0.00000000000000000000e+00) (0, 0, 0.00000000000000000000e+00) (0, 0, 0.00000000000000000000e+00) (0, 0, 0.00000000000000000000e+00) (0, 0, 0.00000000000000000000e+00) (0, 0, 0.00000000000000000000e+00) (0, 0, 0.00000000000000000000e+00) (0, 0, 0.00000000000000000000e+00) (0, 0, 0.00000000000000000000e+00) (0, 0, 0.00000000000000000000e+00) (0, 0, 0.00000000000000000000e+00) (0, 0, 0.00000000000000000000e+00) (0, 0, 0.00000000000000000000e+00) (0, 0, 0.00000000000000000000e+00) (0, 0, 0.00000000000000000000e+00) (0, 0, 0.00000000000000000000e+00) (0, 0, 0.00000000000000000000e+00) (0, 0, 0.00000000000000000000e+00) (0, 0, 0.00000000000000000000e+00) (0, 0, 0.00000000000000000000e+00) (0, 0, 0.00000000000000000000e+00) (0, 0, 0.00000000000000000000e+00) (0, 0, 0.00000000000000000000e+00) (0, 0, 0.00000000000000000000e+00) (0, 0, 0.00000000000000000000e+00) (0, 0, 0.00000000000000000000e+00) (0, 0, 0.00000000000000000000e+00) (0, 0, 0.00000000000000000000e+00) (0, 0, 0.00000000000000000000e+00) (0, 0, 0.00000000000000000000e+00) (0, 0, 0.00000000000000000000e+00) (0, 0, 0.00000000000000000000e+00) (0, 0, 0.00000000000000000000e+00) (0, 0, 0.00000000000000000000e+00) (0, 0, 0.00000000000000000000e+00) (0, 0, 0.00000000000000000000e+00) (0, 0, 0.00000000000000000000e+00) (0, 0, 0.00000000000000000000e+00) (0, 0, 0.00000000000000000000e+00) (0, 0, 0.00000000000000000000e+00) (0, 0, 0.00000000000000000000e+00) (0, 0, 0.00000000000000000000e+00) (0, 0, 0.00000000000000000000e+00) (0, 0, 0.00000000000000000000e+00) (0, 0, 0.00000000000000000000e+00) (0, 0, 0.00000000000000000000e+00) (0, 0, 0.00000000000000000000e+00) (0, 0, 0.00000000000000000000e+00) (0, 0, 0.00000000000000000000e+00) (0, 0, 0.00000000000000000000e+00) (0, 0, 0.00000000000000000000e+00) (0, 0, 0.00000000000000000000e+00) (0, 0, 0.00000000000000000000e+00) (0, 0, 0.00000000000000000000e+00) (0, 0, 0.00000000000000000000e+00) (0, 0, 0.00000000000000000000e+00) (0, 0, 0.00000000000000000000e+00) (0, 0, 0.00000000000000000000e+00) (0, 0, 0.00000000000000000000e+00) (0, 0, 0.00000000000000000000e+00) (0, 0, 0.00000000000000000000e+00) (0, 0, 0.00000000000000000000e+00) (0, 0, 0.00000000000000000000e+00) (0, 0, 0.00000000000000000000e+00) (0, 0, 0.00000000000000000000e+00) (0, 0, 0.00000000000000000000e+00) (0, 0, 0.00000000000000000000e+00) (257, 5, 5.00000000000000000000e-01) (257, 5, 5.00000000000000000000e-01) (257, 5, 5.00000000000000000000e-01) (257, 5, 5.00000000000000000000e-01) (257, 5, 5.00000000000000000000e-01) (257, 5, 5.00000000000000000000e-01) (257, 5, 5.00000000000000000000e-01) (257, 5, 5.00000000000000000000e-01) (257, 5, 5.00000000000000000000e-01) (257, 5, 5.00000000000000000000e-01) (257, 5, 5.00000000000000000000e-01) (257, 5, 5.00000000000000000000e-01) (257, 5, 5.00000000000000000000e-01) (257, 5, 5.00000000000000000000e-01) (257, 5, 5.00000000000000000000e-01) (257, 5, 5.00000000000000000000e-01) (257, 5, 5.00000000000000000000e-01) (257, 5, 5.00000000000000000000e-01) (257, 5, 5.00000000000000000000e-01) (257, 5, 5.00000000000000000000e-01) (257, 5, 5.00000000000000000000e-01) (257, 5, 5.00000000000000000000e-01) (257, 5, 5.00000000000000000000e-01) (257, 5, 5.00000000000000000000e-01) (257, 5, 5.00000000000000000000e-01) (257, 5, 5.00000000000000000000e-01) (257, 5, 5.00000000000000000000e-01) (257, 5, 5.00000000000000000000e-01) (257, 5, 5.00000000000000000000e-01) (257, 5, 5.00000000000000000000e-01) (257, 5, 5.00000000000000000000e-01) (257, 5, 5.00000000000000000000e-01) (257, 5, 5.00000000000000000000e-01) (257, 5, 5.00000000000000000000e-01) (257, 5, 5.00000000000000000000e-01) (257, 5, 5.00000000000000000000e-01) (257, 5, 5.00000000000000000000e-01) (257, 5, 5.00000000000000000000e-01) (257, 5, 5.00000000000000000000e-01) (257, 5, 5.00000000000000000000e-01) (257, 5, 5.00000000000000000000e-01) (257, 5, 5.00000000000000000000e-01) (257, 5, 5.00000000000000000000e-01) (257, 5, 5.00000000000000000000e-01) (257, 5, 5.00000000000000000000e-01) (257, 5, 5.00000000000000000000e-01) (257, 5, 5.00000000000000000000e-01) (257, 5, 5.00000000000000000000e-01) (257, 5, 5.00000000000000000000e-01) (257, 5, 5.00000000000000000000e-01) (257, 5, 5.00000000000000000000e-01) (257, 5, 5.00000000000000000000e-01) (257, 5, 5.00000000000000000000e-01) (257, 5, 5.00000000000000000000e-01) (257, 5, 5.00000000000000000000e-01) (257, 5, 5.00000000000000000000e-01) (257, 5, 5.00000000000000000000e-01) (257, 5, 5.00000000000000000000e-01) (257, 5, 5.00000000000000000000e-01) (257, 5, 5.00000000000000000000e-01) (257, 5, 5.00000000000000000000e-01) (257, 5, 5.00000000000000000000e-01) (257, 5, 5.00000000000000000000e-01) (257, 5, 5.00000000000000000000e-01) (257, 5, 5.00000000000000000000e-01) (257, 5, 5.00000000000000000000e-01) (257, 5, 5.00000000000000000000e-01) (257, 5, 5.00000000000000000000e-01) (257, 5, 5.00000000000000000000e-01) (257, 5, 5.00000000000000000000e-01) (257, 5, 5.00000000000000000000e-01) (257, 5, 5.00000000000000000000e-01) (257, 5, 5.00000000000000000000e-01) (257, 5, 5.00000000000000000000e-01) (257, 5, 5.00000000000000000000e-01) (257, 5, 5.00000000000000000000e-01) (257, 5, 5.00000000000000000000e-01) (257, 5, 5.00000000000000000000e-01) (257, 5, 5.00000000000000000000e-01) (257, 5, 5.00000000000000000000e-01) (257, 5, 5.00000000000000000000e-01) (257, 5, 5.00000000000000000000e-01) (257, 5, 5.00000000000000000000e-01) (257, 5, 5.00000000000000000000e-01) (257, 5, 5.00000000000000000000e-01) (257, 5, 5.00000000000000000000e-01) (257, 5, 5.00000000000000000000e-01) (257, 5, 5.00000000000000000000e-01) (257, 5, 5.00000000000000000000e-01) (257, 5, 5.00000000000000000000e-01) (257, 5, 5.00000000000000000000e-01) (257, 5, 5.00000000000000000000e-01) (257, 5, 5.00000000000000000000e-01) (257, 5, 5.00000000000000000000e-01) (257, 5, 5.00000000000000000000e-01) (257, 5, 5.00000000000000000000e-01) (257, 5, 5.00000000000000000000e-01) (257, 5, 5.00000000000000000000e-01) (257, 5, 5.00000000000000000000e-01) (257, 5, 5.00000000000000000000e-01) (257, 5, 5.00000000000000000000e-01) (257, 5, 5.00000000000000000000e-01) (257, 5, 5.00000000000000000000e-01) (257, 5, 5.00000000000000000000e-01) (257, 5, 5.00000000000000000000e-01) (257, 5, 5.00000000000000000000e-01) (257, 5, 5.00000000000000000000e-01) (257, 5, 5.00000000000000000000e-01) (257, 5, 5.00000000000000000000e-01) (257, 5, 5.00000000000000000000e-01) (257, 5, 5.00000000000000000000e-01) (257, 5, 5.00000000000000000000e-01) (257, 5, 5.00000000000000000000e-01) (257, 5, 5.00000000000000000000e-01) (257, 5, 5.00000000000000000000e-01) (257, 5, 5.00000000000000000000e-01) (257, 5, 5.00000000000000000000e-01) (257, 5, 5.00000000000000000000e-01) (257, 5, 5.00000000000000000000e-01) (257, 5, 5.00000000000000000000e-01) (257, 5, 5.00000000000000000000e-01) (257, 5, 5.00000000000000000000e-01) (257, 5, 5.00000000000000000000e-01) (257, 5, 5.00000000000000000000e-01) (257, 5, 5.00000000000000000000e-01) (257, 5, 5.00000000000000000000e-01) (257, 5, 5.00000000000000000000e-01) (257, 5, 5.00000000000000000000e-01) (0, 5, 5.00000000000000000000e-01) (129, 5, 5.00000000000000000000e-01) (129, 5, 5.00000000000000000000e-01) (129, 5, 5.00000000000000000000e-01) (129, 5, 5.00000000000000000000e-01) (129, 5, 5.00000000000000000000e-01) (129, 5, 5.00000000000000000000e-01) (129, 5, 5.00000000000000000000e-01) (129, 5, 5.00000000000000000000e-01) (0, 5, 5.00000000000000000000e-01) 
connections (connected_to_neuron, weight)=(0, -8.73077586293220520020e-02) (1, -1.05124361813068389893e-01) (2, -1.20514929294586181641e-02) (3, 5.04879578948020935059e-02) (4, -2.95734647661447525024e-02) (5, -1.11782431602478027344e-01) (6, 8.33987593650817871094e-02) (7, 1.37428892776370048523e-02) (8, -3.98096963763236999512e-02) (9, -7.80190676450729370117e-02) (10, 6.12839870154857635498e-02) (11, 4.84151765704154968262e-02) (12, -8.51633027195930480957e-02) (13, 4.05602939426898956299e-02) (14, -1.15470588207244873047e-02) (15, 6.40216469764709472656e-02) (16, -5.24544641375541687012e-02) (17, 6.46465122699737548828e-02) (18, 4.52476367354393005371e-02) (19, -3.89040336012840270996e-02) (20, -3.23226414620876312256e-02) (21, -8.89392569661140441895e-02) (22, -3.95297631621360778809e-02) (23, 5.40416166186332702637e-02) (24, 1.76171902567148208618e-02) (25, 7.89830088615417480469e-02) (26, 8.28273594379425048828e-02) (27, -8.03593993186950683594e-02) (28, -7.67641514539718627930e-02) (29, 4.87059578299522399902e-02) (30, 8.42620730400085449219e-02) (31, -5.13107106089591979980e-02) (32, 5.63428290188312530518e-02) (33, -1.50282382965087890625e-02) (34, -8.80615785717964172363e-02) (35, -6.04694448411464691162e-02) (36, -1.40494704246520996094e-02) (37, -9.19016376137733459473e-02) (38, 6.60346150398254394531e-02) (39, 5.89020140469074249268e-02) (40, -5.71595095098018646240e-02) (41, 4.00798209011554718018e-02) (42, 2.00783852487802505493e-02) (43, -2.95616332441568374634e-02) (44, -6.59868028014898300171e-03) (45, -7.87074863910675048828e-02) (46, -5.27787730097770690918e-02) (47, 5.37080094218254089355e-02) (48, -1.01299770176410675049e-01) (49, -9.47699621319770812988e-02) (50, -7.24348276853561401367e-02) (51, -2.08612699061632156372e-02) (52, -7.09479898214340209961e-02) (53, 7.96585925854742527008e-04) (54, -5.40584251284599304199e-02) (55, 5.94303794205188751221e-02) (56, -7.45922140777111053467e-03) (57, -5.84698878228664398193e-02) (58, -1.08167834579944610596e-01) (59, 2.85378340631723403931e-02) (60, -9.70027521252632141113e-02) (61, -1.11144602298736572266e-01) (62, -1.10011704266071319580e-01) (63, 7.21012651920318603516e-02) (64, -1.34116411209106445312e-02) (65, -8.53120759129524230957e-02) (66, -7.56069868803024291992e-02) (67, 8.53000879287719726562e-02) (68, -6.44525140523910522461e-02) (69, -9.68111827969551086426e-02) (70, 5.69632835686206817627e-02) (71, -8.85084271430969238281e-03) (72, 5.60298189520835876465e-02) (73, -1.01971328258514404297e-02) (74, 7.43487179279327392578e-02) (75, -3.78076657652854919434e-02) (76, 2.38565746694803237915e-02) (77, -6.56688585877418518066e-02) (78, -7.13384598493576049805e-02) (79, 3.53179760277271270752e-02) (80, -4.76776286959648132324e-02) (81, -3.10121104121208190918e-02) (82, -7.27820545434951782227e-02) (83, -5.86447026580572128296e-03) (84, 8.25456678867340087891e-02) (85, -1.40793025493621826172e-02) (86, -3.36728617548942565918e-02) (87, -1.21523737907409667969e-02) (88, 4.02119643986225128174e-02) (89, -2.90795434266328811646e-02) (90, -7.08533376455307006836e-02) (91, 5.59704229235649108887e-02) (92, -2.74629015475511550903e-02) (93, -6.81038349866867065430e-02) (94, 4.08328957855701446533e-02) (95, 7.18866586685180664062e-02) (96, -4.06547710299491882324e-02) (97, -7.14412629604339599609e-02) (98, 7.45053291320800781250e-02) (99, -8.40025916695594787598e-02) (100, 3.55079472064971923828e-01) (101, 9.83382314443588256836e-02) (102, -8.28487575054168701172e-02) (103, 6.72855377197265625000e-02) (104, -5.06646893918514251709e-02) (105, -5.18013286590576171875e+00) (106, -6.23183846473693847656e-02) (107, 8.04781541228294372559e-02) (108, -2.22666919231414794922e-01) (109, 5.58494865894317626953e-01) (110, -4.83715629577636718750e+00) (111, -1.55602931976318359375e-01) (112, 6.50964379310607910156e-02) (113, 6.69125020503997802734e-02) (114, -4.76593047380447387695e-01) (115, 4.71559047698974609375e-01) (116, 5.52307891845703125000e+00) (117, -1.31092905998229980469e-01) (118, -3.89878898859024047852e-02) (119, -7.58454427123069763184e-02) (120, 8.05166363716125488281e-02) (121, 3.55355185456573963165e-03) (122, -1.12141869962215423584e-01) (123, -3.41851040720939636230e-02) (124, 4.33342382311820983887e-02) (125, 4.08932454884052276611e-02) (126, -4.95372340083122253418e-02) (127, -8.45593288540840148926e-02) (128, 3.16415391862392425537e-02) (129, -6.68281093239784240723e-02) (130, 3.58557291328907012939e-02) (131, 3.83398123085498809814e-02) (132, 8.56054425239562988281e-02) (133, 6.01811259984970092773e-02) (134, 1.38291073963046073914e-02) (135, -5.93969188630580902100e-02) (136, 7.16164708137512207031e-02) (137, 6.42718970775604248047e-02) (138, -6.77815452218055725098e-02) (139, -6.98559135198593139648e-02) (140, -4.38625738024711608887e-02) (141, 7.19130337238311767578e-02) (142, 5.37552163004875183105e-02) (143, -7.02479928731918334961e-02) (144, 5.15867099165916442871e-02) (145, 8.42630863189697265625e-02) (146, -1.01326532661914825439e-01) (147, -7.00577348470687866211e-02) (148, -6.14070799201726913452e-03) (149, -3.17962728440761566162e-02) (150, -3.87290045619010925293e-02) (151, -1.28628909587860107422e-02) (152, 7.96418190002441406250e-02) (153, -3.86686250567436218262e-02) (154, 6.57131969928741455078e-02) (155, 3.57372649013996124268e-02) (156, -8.50142315030097961426e-02) (157, -7.10628479719161987305e-02) (158, 6.39390945434570312500e-02) (159, 5.93885071575641632080e-02) (160, -2.51298267394304275513e-02) (161, 1.25560425221920013428e-02) (162, 1.04895196855068206787e-02) (163, -2.62042488902807235718e-02) (164, -1.45016312599182128906e-02) (165, -6.29202052950859069824e-02) (166, 2.66010444611310958862e-02) (167, -2.95649897307157516479e-02) (168, -8.58871117234230041504e-02) (169, 7.15806782245635986328e-02) (170, 1.27813182771205902100e-02) (171, -1.69884823262691497803e-02) (172, 5.62548823654651641846e-02) (173, -2.07022745162248611450e-02) (174, 2.55247335880994796753e-02) (175, 2.06027869135141372681e-02) (176, -2.36780066043138504028e-02) (177, 3.69593687355518341064e-02) (178, 6.33062720298767089844e-02) (179, 8.29424858093261718750e-02) (180, -8.20757150650024414062e-02) (181, -6.26615583896636962891e-02) (182, -1.71592216938734054565e-02) (183, -8.96726921200752258301e-02) (184, 1.14309750497341156006e-02) (185, -3.86848375201225280762e-02) (186, 5.88257499039173126221e-02) (187, 3.91779728233814239502e-02) (188, 3.01349256187677383423e-03) (189, 3.55260260403156280518e-02) (190, 1.13276802003383636475e-02) (191, -1.09355159103870391846e-01) (192, -3.91567274928092956543e-02) (193, -6.54216185212135314941e-02) (194, -2.33571548014879226685e-02) (195, 6.07964932918548583984e-01) (196, -1.55806243419647216797e-02) (197, -8.39949324727058410645e-02) (198, -5.82599304616451263428e-02) (199, 1.12934671342372894287e-02) (200, -9.96530726552009582520e-02) (201, 6.72825574874877929688e-02) (202, -9.29338410496711730957e-02) (203, 6.93630576133728027344e-02) (204, -4.06585261225700378418e-02) (205, 4.53520938754081726074e-02) (206, 2.72703217342495918274e-03) (207, 4.84246835112571716309e-02) (208, 3.29788327217102050781e-01) (209, 3.05194377899169921875e-01) (210, 4.41283509135246276855e-02) (211, 2.57581155747175216675e-02) (212, 2.88941208273172378540e-02) (213, -6.02697096765041351318e-02) (214, 4.88466247916221618652e-02) (215, -4.69137057662010192871e-02) (216, 1.38066364452242851257e-02) (217, 2.04335395246744155884e-02) (218, -9.49745550751686096191e-02) (219, -7.04186707735061645508e-02) (220, -3.12791988253593444824e-02) (221, 2.91143301874399185181e-02) (222, -6.70126155018806457520e-02) (223, 4.23252508044242858887e-02) (224, 7.64538943767547607422e-02) (225, 2.23914030939340591431e-02) (226, 1.41892973333597183228e-02) (227, -2.63655204325914382935e-02) (228, 5.11576756834983825684e-02) (229, 6.86905384063720703125e-02) (230, -1.02310873568058013916e-01) (231, 6.42658174037933349609e-02) (232, 4.87342998385429382324e-02) (233, -8.24835002422332763672e-02) (234, 4.63900491595268249512e-02) (235, -7.91630148887634277344e-02) (236, 7.56297707557678222656e-02) (237, -3.81217226386070251465e-02) (238, 8.20228457450866699219e-02) (239, -1.65363810956478118896e-02) (240, 5.34339472651481628418e-02) (241, 3.89123447239398956299e-02) (242, -7.80170410871505737305e-02) (243, -4.91076707839965820312e-03) (244, -1.08596153557300567627e-01) (245, 8.35907459259033203125e-02) (246, 6.09367005527019500732e-02) (247, 1.79716888815164566040e-02) (248, 1.67854968458414077759e-02) (249, 7.87233710289001464844e-02) (250, 6.03141635656356811523e-02) (251, -1.01732529699802398682e-01) (252, 2.05988828092813491821e-02) (253, -9.39372852444648742676e-02) (254, 5.33539280295372009277e-02) (255, 9.81396436691284179688e-03) (256, 4.75491523742675781250e-01) (0, 4.02620941400527954102e-01) (1, 3.18526178598403930664e-01) (2, 4.27450746297836303711e-01) (3, 3.84072691202163696289e-01) (4, 3.28976482152938842773e-01) (5, 4.04477745294570922852e-01) (6, 3.45568150281906127930e-01) (7, 3.59254211187362670898e-01) (8, 3.63629013299942016602e-01) (9, 3.79166394472122192383e-01) (10, 3.47645133733749389648e-01) (11, 4.38268452882766723633e-01) (12, 3.73950392007827758789e-01) (13, 4.43869978189468383789e-01) (14, 4.04463618993759155273e-01) (15, 3.25623959302902221680e-01) (16, 4.78614151477813720703e-01) (17, 3.12314033508300781250e-01) (18, 3.29788953065872192383e-01) (19, 4.74966049194335937500e-01) (20, 4.86011981964111328125e-01) (21, 4.60521847009658813477e-01) (22, 4.04512733221054077148e-01) (23, 4.77496504783630371094e-01) (24, 4.33597236871719360352e-01) (25, 4.15541440248489379883e-01) (26, 4.10856574773788452148e-01) (27, 4.52421158552169799805e-01) (28, 3.81656557321548461914e-01) (29, 3.33431690931320190430e-01) (30, 4.06397730112075805664e-01) (31, 4.74722146987915039062e-01) (32, 3.42402547597885131836e-01) (33, 3.24293106794357299805e-01) (34, 3.49239438772201538086e-01) (35, 3.61823648214340209961e-01) (36, 4.19215470552444458008e-01) (37, 3.85252326726913452148e-01) (38, 4.11522537469863891602e-01) (39, 4.73289132118225097656e-01) (40, 4.54863280057907104492e-01) (41, 4.49612289667129516602e-01) (42, 4.02002245187759399414e-01) (43, 3.19258302450180053711e-01) (44, 3.83926957845687866211e-01) (45, 4.96910512447357177734e-01) (46, 3.35326880216598510742e-01) (47, 3.52985650300979614258e-01) (48, 4.99669134616851806641e-01) (49, 3.55560511350631713867e-01) (50, 3.18396359682083129883e-01) (51, 4.76125717163085937500e-01) (52, 5.06526827812194824219e-01) (53, 4.13353770971298217773e-01) (54, 4.44066792726516723633e-01) (55, 4.30568903684616088867e-01) (56, 3.19339781999588012695e-01) (57, 3.45367997884750366211e-01) (58, 3.73434752225875854492e-01) (59, 3.91440957784652709961e-01) (60, 3.69244366884231567383e-01) (61, 4.70277041196823120117e-01) (62, 3.56607705354690551758e-01) (63, 4.02091532945632934570e-01) (64, 4.85014855861663818359e-01) (65, 3.96291822195053100586e-01) (66, 4.54359859228134155273e-01) (67, 3.94674926996231079102e-01) (68, 4.71988797187805175781e-01) (69, 3.56326967477798461914e-01) (70, 3.58408719301223754883e-01) (71, 4.17296677827835083008e-01) (72, 4.96383965015411376953e-01) (73, 4.50855582952499389648e-01) (74, 4.26999598741531372070e-01) (75, 3.70755523443222045898e-01) (76, 4.38210695981979370117e-01) (77, 4.52771157026290893555e-01) (78, 4.14185851812362670898e-01) (79, 4.28324490785598754883e-01) (80, 4.98776316642761230469e-01) (81, 4.23026829957962036133e-01) (82, 3.94894808530807495117e-01) (83, 4.95748013257980346680e-01) (84, 3.26825171709060668945e-01) (85, 3.29406231641769409180e-01) (86, 4.16761487722396850586e-01) (87, 3.36609631776809692383e-01) (88, 3.65218907594680786133e-01) (89, 4.80640888214111328125e-01) (90, 4.18495208024978637695e-01) (91, 4.24907892942428588867e-01) (92, 4.41362589597702026367e-01) (93, 4.65547531843185424805e-01) (94, 3.17444056272506713867e-01) (95, 4.16822046041488647461e-01) (96, 3.52283984422683715820e-01) (97, -1.03572249412536621094e+00) (98, 5.01251041889190673828e-01) (99, 7.13803321123123168945e-02) (100, -3.09074133634567260742e-01) (101, 4.36836212873458862305e-01) (102, 3.78592908382415771484e-01) (103, 4.95761752128601074219e-01) (104, 4.47182059288024902344e-01) (105, 1.28719496726989746094e+00) (106, 3.55845034122467041016e-01) (107, 4.19546544551849365234e-01) (108, 2.90274828672409057617e-01) (109, -7.95505419373512268066e-02) (110, 3.10630702972412109375e+00) (111, -9.25291252136230468750e+00) (112, 3.31595957279205322266e-01) (113, 4.24859017133712768555e-01) (114, -2.28715229034423828125e+00) (115, -1.37133703231811523438e+01) (116, 1.32924814224243164062e+01) (117, 3.81970971822738647461e-01) (118, 3.75696271657943725586e-01) (119, 5.00021934509277343750e-01) (120, 3.36823910474777221680e-01) (121, -1.39466196298599243164e-01) (122, 4.30692583322525024414e-01) (123, 4.68631178140640258789e-01) (124, 4.84407067298889160156e-01) (125, 4.23614710569381713867e-01) (126, 3.75897854566574096680e-01) (127, 3.27135711908340454102e-01) (128, 3.74892503023147583008e-01) (129, 3.66868644952774047852e-01) (130, 3.30882281064987182617e-01) (131, 3.74357372522354125977e-01) (132, 4.09523636102676391602e-01) (133, 4.44510668516159057617e-01) (134, 3.62066179513931274414e-01) (135, 3.92063409090042114258e-01) (136, 4.75548744201660156250e-01) (137, 4.09559816122055053711e-01) (138, 5.03258287906646728516e-01) (139, 4.47927027940750122070e-01) (140, 3.61683875322341918945e-01) (141, 3.33222717046737670898e-01) (142, 4.11896437406539916992e-01) (143, 4.26094323396682739258e-01) (144, 4.48526412248611450195e-01) (145, 3.60873311758041381836e-01) (146, 3.10144752264022827148e-01) (147, 3.83680969476699829102e-01) (148, 4.17056411504745483398e-01) (149, 4.20064359903335571289e-01) (150, 3.74499052762985229492e-01) (151, 4.44325000047683715820e-01) (152, 4.38923865556716918945e-01) (153, 4.80582565069198608398e-01) (154, 4.03400808572769165039e-01) (155, 4.13688421249389648438e-01) (156, 3.94729048013687133789e-01) (157, 4.69743221998214721680e-01) (158, 4.31355863809585571289e-01) (159, 4.61481600999832153320e-01) (160, 3.28471869230270385742e-01) (161, 4.08537715673446655273e-01) (162, 3.27699035406112670898e-01) (163, 3.72015625238418579102e-01) (164, 3.88328582048416137695e-01) (165, 3.80209952592849731445e-01) (166, 3.10948222875595092773e-01) (167, 2.99312740564346313477e-01) (168, 4.80214357376098632812e-01) (169, 5.04927396774291992188e-01) (170, 4.95294064283370971680e-01) (171, 3.32342833280563354492e-01) (172, 3.28318744897842407227e-01) (173, 3.52074533700942993164e-01) (174, 4.50066894292831420898e-01) (175, 4.67289775609970092773e-01) (176, 4.47537571191787719727e-01) (177, 4.50656265020370483398e-01) (178, 3.40230315923690795898e-01) (179, 3.55763643980026245117e-01) (180, 3.59749823808670043945e-01) (181, -1.07201583683490753174e-01) (182, 4.89808291196823120117e-01) (183, 4.90533798933029174805e-01) (184, 3.76057952642440795898e-01) (185, 3.85069102048873901367e-01) (186, 3.93338531255722045898e-01) (187, 4.61231619119644165039e-01) (188, 3.44650566577911376953e-01) (189, 3.15138965845108032227e-01) (190, 4.13157910108566284180e-01) (191, 3.62758070230484008789e-01) (192, 4.61097329854965209961e-01) (193, 4.32716995477676391602e-01) (194, 4.83058333396911621094e-01) (195, 2.45764911174774169922e-01) (196, 5.02513289451599121094e-01) (197, 4.83247250318527221680e-01) (198, 3.87467890977859497070e-01) (199, 4.74030554294586181641e-01) (200, 4.79547202587127685547e-01) (201, 3.73206526041030883789e-01) (202, 4.96818065643310546875e-01) (203, 4.98310625553131103516e-01) (204, 4.61286216974258422852e-01) (205, 4.37329560518264770508e-01) (206, 4.56045061349868774414e-01) (207, 4.00683850049972534180e-01) (208, -1.40182316303253173828e-01) (209, -2.90991086512804031372e-02) (210, 4.47582572698593139648e-01) (211, 4.30040389299392700195e-01) (212, 3.84708791971206665039e-01) (213, 4.29250925779342651367e-01) (214, 4.11018759012222290039e-01) (215, 4.52626734972000122070e-01) (216, 5.04764437675476074219e-01) (217, 4.96217370033264160156e-01) (218, 4.05718475580215454102e-01) (219, 3.40466231107711791992e-01) (220, 5.03216207027435302734e-01) (221, 3.10736417770385742188e-01) (222, 3.95084410905838012695e-01) (223, 4.54758375883102416992e-01) (224, 4.33898061513900756836e-01) (225, 3.68587344884872436523e-01) (226, 4.86488938331604003906e-01) (227, 4.27714258432388305664e-01) (228, 3.43483120203018188477e-01) (229, 3.64401370286941528320e-01) (230, 3.92189472913742065430e-01) (231, 3.13474982976913452148e-01) (232, 4.28052574396133422852e-01) (233, 3.79452198743820190430e-01) (234, 5.02229928970336914062e-01) (235, 3.79783421754837036133e-01) (236, 5.07226109504699707031e-01) (237, 4.48719888925552368164e-01) (238, 4.70911890268325805664e-01) (239, 3.76101464033126831055e-01) (240, 4.27069634199142456055e-01) (241, 4.08939093351364135742e-01) (242, 4.96586441993713378906e-01) (243, 5.02222716808319091797e-01) (244, 3.28634649515151977539e-01) (245, 3.98049861192703247070e-01) (246, 4.45294409990310668945e-01) (247, 3.23843926191329956055e-01) (248, 3.84711831808090209961e-01) (249, 3.41457515954971313477e-01) (250, 3.54754775762557983398e-01) (251, 3.78372877836227416992e-01) (252, 3.42638581991195678711e-01) (253, 4.40283805131912231445e-01) (254, 3.23575824499130249023e-01) (255, 4.66981261968612670898e-01) (256, 7.11557939648628234863e-02) (0, 4.72401708364486694336e-01) (1, 3.57032567262649536133e-01) (2, 3.05135875940322875977e-01) (3, 3.27247768640518188477e-01) (4, 4.39666658639907836914e-01) (5, 3.09055477380752563477e-01) (6, 4.45744961500167846680e-01) (7, 3.09563428163528442383e-01) (8, 3.01730364561080932617e-01) (9, 3.15972954034805297852e-01) (10, 3.07234376668930053711e-01) (11, 4.40894931554794311523e-01) (12, 4.77329522371292114258e-01) (13, 3.73780518770217895508e-01) (14, 3.58409136533737182617e-01) (15, 3.76713305711746215820e-01) (16, 3.60811561346054077148e-01) (17, 3.51076811552047729492e-01) (18, 3.95792573690414428711e-01) (19, 4.49306041002273559570e-01) (20, 2.86815792322158813477e-01) (21, 4.10081118345260620117e-01) (22, 3.24462503194808959961e-01) (23, 3.18717926740646362305e-01) (24, 4.55280572175979614258e-01) (25, 3.93279999494552612305e-01) (26, 3.51801186800003051758e-01) (27, 3.86009007692337036133e-01) (28, 4.07300502061843872070e-01) (29, 3.09227079153060913086e-01) (30, 3.75769466161727905273e-01) (31, 3.98254543542861938477e-01) (32, 3.84811967611312866211e-01) (33, 3.99457663297653198242e-01) (34, 4.44054633378982543945e-01) (35, 3.43030899763107299805e-01) (36, 4.27065461874008178711e-01) (37, 4.08351927995681762695e-01) (38, 3.71146708726882934570e-01) (39, 4.47348147630691528320e-01) (40, 4.42877262830734252930e-01) (41, 3.96933406591415405273e-01) (42, 4.06795412302017211914e-01) (43, 4.38759118318557739258e-01) (44, 2.89266198873519897461e-01) (45, 2.83756822347640991211e-01) (46, 3.34024697542190551758e-01) (47, 3.68630141019821166992e-01) (48, 3.53385955095291137695e-01) (49, 4.48369592428207397461e-01) (50, 3.36488455533981323242e-01) (51, 3.58754128217697143555e-01) (52, 3.77003043889999389648e-01) (53, 3.79503339529037475586e-01) (54, 3.96024376153945922852e-01) (55, 3.50835949182510375977e-01) (56, 2.91335612535476684570e-01) (57, 4.66377884149551391602e-01) (58, 4.55397278070449829102e-01) (59, 4.17188435792922973633e-01) (60, 2.94157296419143676758e-01) (61, 3.49719017744064331055e-01) (62, 3.33995252847671508789e-01) (63, 3.97521644830703735352e-01) (64, 4.67728942632675170898e-01) (65, 2.96602219343185424805e-01) (66, 4.59104865789413452148e-01) (67, 4.13346737623214721680e-01) (68, 4.23506468534469604492e-01) (69, 3.48803848028182983398e-01) (70, 3.79247218370437622070e-01) (71, 3.84936004877090454102e-01) (72, 4.64289575815200805664e-01) (73, 3.04594904184341430664e-01) (74, 3.42247396707534790039e-01) (75, 4.72108155488967895508e-01) (76, 3.06904047727584838867e-01) (77, 3.94824415445327758789e-01) (78, 3.59290570020675659180e-01) (79, 3.78842324018478393555e-01) (80, 3.61746340990066528320e-01) (81, 4.14331406354904174805e-01) (82, 4.56148773431777954102e-01) (83, 4.57301646471023559570e-01) (84, 3.12387019395828247070e-01) (85, 3.70725423097610473633e-01) (86, 3.26689869165420532227e-01) (87, 3.22274953126907348633e-01) (88, 3.55655640363693237305e-01) (89, 3.00639420747756958008e-01) (90, 4.58015710115432739258e-01) (91, 3.68365317583084106445e-01) (92, 3.68910759687423706055e-01) (93, 3.10563296079635620117e-01) (94, 2.84439176321029663086e-01) (95, 3.55192035436630249023e-01) (96, 3.25717836618423461914e-01) (97, -3.08442622423171997070e-01) (98, 2.88284510374069213867e-01) (99, 4.57799375057220458984e-01) (100, 8.11457484960556030273e-02) (101, -9.37408506870269775391e-02) (102, 3.72861653566360473633e-01) (103, 3.11223208904266357422e-01) (104, 4.12484437227249145508e-01) (105, 8.60118091106414794922e-01) (106, 3.05029898881912231445e-01) (107, 4.59053277969360351562e-01) (108, 7.94885903596878051758e-02) (109, 3.72529536485671997070e-01) (110, 4.58808541297912597656e-01) (111, -4.45557862520217895508e-01) (112, 3.09599429368972778320e-01) (113, 3.03045719861984252930e-01) (114, -7.93822860717773437500e+00) (115, -4.59708404541015625000e+01) (116, -2.27227687835693359375e-01) (117, 3.00366580486297607422e-01) (118, 3.78652006387710571289e-01) (119, 4.96912568807601928711e-01) (120, 4.63483780622482299805e-01) (121, 3.89853149652481079102e-01) (122, 5.35080313682556152344e-01) (123, 3.53491038084030151367e-01) (124, 3.91131848096847534180e-01) (125, 3.58984798192977905273e-01) (126, 4.27235335111618041992e-01) (127, 4.35402005910873413086e-01) (128, 3.39633435010910034180e-01) (129, 4.32878762483596801758e-01) (130, 4.25657510757446289062e-01) (131, 3.87638360261917114258e-01) (132, 3.36321622133255004883e-01) (133, 3.12741667032241821289e-01) (134, 4.18485134840011596680e-01) (135, 4.62911814451217651367e-01) (136, 4.62165206670761108398e-01) (137, 4.39992398023605346680e-01) (138, 4.14958328008651733398e-01) (139, 3.26158851385116577148e-01) (140, 3.39342564344406127930e-01) (141, 4.64399546384811401367e-01) (142, 4.70451205968856811523e-01) (143, 3.71576458215713500977e-01) (144, 2.88541764020919799805e-01) (145, 3.90597492456436157227e-01) (146, 4.34749692678451538086e-01) (147, 4.01961773633956909180e-01) (148, 3.55986028909683227539e-01) (149, 3.38750153779983520508e-01) (150, 3.89589697122573852539e-01) (151, 3.40566247701644897461e-01) (152, 4.19318705797195434570e-01) (153, 4.65328723192214965820e-01) (154, 4.12609547376632690430e-01) (155, 3.30196291208267211914e-01) (156, 3.41672331094741821289e-01) (157, 3.58397215604782104492e-01) (158, 2.82957166433334350586e-01) (159, 3.99858146905899047852e-01) (160, 3.11021715402603149414e-01) (161, 4.20335888862609863281e-01) (162, 3.06048780679702758789e-01) (163, 3.62158089876174926758e-01) (164, 4.53341037034988403320e-01) (165, 4.43086236715316772461e-01) (166, 3.46166402101516723633e-01) (167, 4.31514352560043334961e-01) (168, 4.02824431657791137695e-01) (169, 4.77132886648178100586e-01) (170, 4.78769749402999877930e-01) (171, 4.59525853395462036133e-01) (172, 4.62628930807113647461e-01) (173, 4.64868664741516113281e-01) (174, 3.49654644727706909180e-01) (175, 4.69722956418991088867e-01) (176, 3.76923114061355590820e-01) (177, 3.02956551313400268555e-01) (178, 3.90237063169479370117e-01) (179, 4.51461404561996459961e-01) (180, 3.60259085893630981445e-01) (181, 2.98379033803939819336e-01) (182, 3.10579925775527954102e-01) (183, 2.98130065202713012695e-01) (184, 4.80722248554229736328e-01) (185, 4.41741853952407836914e-01) (186, 3.45685273408889770508e-01) (187, 3.41291278600692749023e-01) (188, 3.18691343069076538086e-01) (189, 3.47194820642471313477e-01) (190, 4.59357321262359619141e-01) (191, 3.47071975469589233398e-01) (192, 2.88987547159194946289e-01) (193, 2.84302860498428344727e-01) (194, 4.30326551198959350586e-01) (195, -8.73947739601135253906e-01) (196, 4.48016375303268432617e-01) (197, 3.05333286523818969727e-01) (198, 4.13491755723953247070e-01) (199, 3.66124719381332397461e-01) (200, 2.93274611234664916992e-01) (201, 4.10813838243484497070e-01) (202, 3.44202905893325805664e-01) (203, 4.74455863237380981445e-01) (204, 3.97139400243759155273e-01) (205, 4.12409812211990356445e-01) (206, 4.62731152772903442383e-01) (207, 2.92614787817001342773e-01) (208, 4.70480352640151977539e-01) (209, 3.78440976142883300781e-01) (210, 4.62628513574600219727e-01) (211, 3.12730103731155395508e-01) (212, 3.88451904058456420898e-01) (213, 2.91760772466659545898e-01) (214, 3.29412549734115600586e-01) (215, 3.88070851564407348633e-01) (216, 4.52054947614669799805e-01) (217, 3.93650144338607788086e-01) (218, 4.47914510965347290039e-01) (219, 2.89298623800277709961e-01) (220, 4.59397286176681518555e-01) (221, 4.26168590784072875977e-01) (222, 3.54922920465469360352e-01) (223, 4.66937154531478881836e-01) (224, 4.29023772478103637695e-01) (225, 3.03801804780960083008e-01) (226, 4.46370393037796020508e-01) (227, 3.93517524003982543945e-01) (228, 3.17399352788925170898e-01) (229, 3.78414481878280639648e-01) (230, 4.78194564580917358398e-01) (231, 3.29226285219192504883e-01) (232, 3.07780593633651733398e-01) (233, 3.40949743986129760742e-01) (234, 3.22234421968460083008e-01) (235, 4.23472374677658081055e-01) (236, 4.71911936998367309570e-01) (237, 3.03517907857894897461e-01) (238, 4.34639483690261840820e-01) (239, 4.24383014440536499023e-01) (240, 3.93590718507766723633e-01) (241, 4.15820270776748657227e-01) (242, 4.55665439367294311523e-01) (243, 3.00594896078109741211e-01) (244, 4.26133424043655395508e-01) (245, 3.03630262613296508789e-01) (246, 4.07218128442764282227e-01) (247, 3.96740645170211791992e-01) (248, 4.15832787752151489258e-01) (249, 3.73684972524642944336e-01) (250, 4.04591590166091918945e-01) (251, 3.93782347440719604492e-01) (252, 3.18405836820602416992e-01) (253, 4.78066891431808471680e-01) (254, 3.79271835088729858398e-01) (255, 4.65981930494308471680e-01) (256, -1.50878742337226867676e-01) (0, 1.79478432983160018921e-02) (1, 5.18051013350486755371e-02) (2, 1.01259984076023101807e-02) (3, 1.14914655685424804688e-01) (4, 4.85519841313362121582e-02) (5, 5.79046234488487243652e-02) (6, 1.41247630119323730469e-01) (7, 1.08054071664810180664e-01) (8, 9.86914038658142089844e-02) (9, 8.32722783088684082031e-02) (10, 9.85183119773864746094e-02) (11, 1.20761595666408538818e-01) (12, 3.64640317857265472412e-02) (13, 4.14536073803901672363e-02) (14, 3.29046435654163360596e-02) (15, -2.91633773595094680786e-02) (16, 1.56713593751192092896e-02) (17, 5.20518794655799865723e-02) (18, 1.15522354841232299805e-01) (19, 3.78539822995662689209e-02) (20, -2.21777036786079406738e-02) (21, 3.08152921497821807861e-02) (22, -2.77609564363956451416e-02) (23, 7.00595676898956298828e-02) (24, 1.53959274291992187500e-01) (25, 8.45737159252166748047e-02) (26, 1.07017725706100463867e-01) (27, 1.50578439235687255859e-01) (28, -1.76021978259086608887e-02) (29, 9.15519893169403076172e-02) (30, -3.04482970386743545532e-02) (31, 4.51446399092674255371e-02) (32, -1.18439365178346633911e-02) (33, 2.44766809046268463135e-02) (34, 4.85829170793294906616e-03) (35, 8.15070345997810363770e-02) (36, 1.27180337905883789062e-01) (37, -9.09512396901845932007e-03) (38, 3.43600772321224212646e-02) (39, 7.06706792116165161133e-02) (40, 1.18976138532161712646e-01) (41, -2.23226323723793029785e-02) (42, 3.62312756478786468506e-02) (43, 2.39126544329337775707e-04) (44, 6.39299750328063964844e-02) (45, 1.13934904336929321289e-01) (46, 1.58747434616088867188e-02) (47, 1.24400310218334197998e-01) (48, 1.07857622206211090088e-02) (49, -2.38039270043373107910e-02) (50, 7.05327279865741729736e-03) (51, 3.34070585668087005615e-02) (52, 5.18103614449501037598e-02) (53, 2.40913070738315582275e-02) (54, 1.48265630006790161133e-01) (55, 5.05685731768608093262e-02) (56, 1.53464019298553466797e-01) (57, 1.00082308053970336914e-01) (58, 4.59459647536277770996e-02) (59, -1.93392112851142883301e-02) (60, 3.64332608878612518311e-02) (61, 6.02966472506523132324e-02) (62, 7.06044286489486694336e-02) (63, 6.93883150815963745117e-02) (64, 1.29572361707687377930e-01) (65, 1.20261691510677337646e-01) (66, -4.30569890886545181274e-03) (67, 1.01551622152328491211e-01) (68, -4.40344512462615966797e-02) (69, 7.48533606529235839844e-02) (70, 1.70212611556053161621e-02) (71, 1.19740657508373260498e-01) (72, 9.73297357559204101562e-02) (73, 9.80515182018280029297e-02) (74, -3.52212265133857727051e-02) (75, 6.05866499245166778564e-03) (76, 5.67853972315788269043e-02) (77, 2.54525132477283477783e-02) (78, -2.47420296072959899902e-02) (79, 1.12370163202285766602e-01) (80, 4.64475676417350769043e-02) (81, 2.71102227270603179932e-02) (82, -9.42381378263235092163e-03) (83, 1.43056958913803100586e-01) (84, 9.60005223751068115234e-02) (85, -1.63592323660850524902e-02) (86, 3.84244732558727264404e-02) (87, 9.42635238170623779297e-02) (88, 1.28522083163261413574e-01) (89, 1.29169434309005737305e-01) (90, 1.19723282754421234131e-01) (91, 9.75430384278297424316e-03) (92, 3.42650376260280609131e-02) (93, 3.51266823709011077881e-02) (94, 1.23941592872142791748e-01) (95, 8.63634329289197921753e-03) (96, 1.87359852134250104427e-04) (97, 1.28312325477600097656e+00) (98, 1.49917110800743103027e-01) (99, 2.84094303846359252930e-01) (100, 4.43817377090454101562e-01) (101, 2.36156612634658813477e-01) (102, -3.95783409476280212402e-02) (103, 2.11460702121257781982e-02) (104, -4.54122126102447509766e-02) (105, 8.90619516372680664062e-01) (106, 7.70736038684844970703e-02) (107, 6.12420663237571716309e-02) (108, 3.83690118789672851562e-01) (109, 9.20606851577758789062e-02) (110, -4.05374956130981445312e+00) (111, -4.91316974163055419922e-01) (112, -3.60301136970520019531e-02) (113, 5.37863746285438537598e-02) (114, -5.03461003303527832031e-01) (115, 4.93201464414596557617e-01) (116, -1.02381811141967773438e+01) (117, 3.67376804351806640625e-01) (118, 4.38318923115730285645e-02) (119, -1.39426337555050849915e-02) (120, -1.83848962187767028809e-02) (121, 1.34240277111530303955e-02) (122, 4.06106449663639068604e-02) (123, 6.06791302561759948730e-02) (124, 9.33497250080108642578e-02) (125, 7.88410380482673645020e-02) (126, 1.14114463329315185547e-01) (127, 1.38336092233657836914e-01) (128, 8.80748927593231201172e-02) (129, 1.13900363445281982422e-01) (130, -1.59130766987800598145e-02) (131, 1.69611200690269470215e-02) (132, -2.44934931397438049316e-02) (133, -5.62254432588815689087e-03) (134, 8.79760682582855224609e-02) (135, -2.00368240475654602051e-02) (136, 1.42457522451877593994e-02) (137, 9.84864309430122375488e-03) (138, 8.60042273998260498047e-02) (139, 1.04365557432174682617e-01) (140, 1.51778221130371093750e-01) (141, 1.49214446544647216797e-01) (142, 8.57319235801696777344e-02) (143, -3.43830585479736328125e-02) (144, 4.77997735142707824707e-02) (145, 5.49541637301445007324e-02) (146, 1.20255224406719207764e-01) (147, -2.51751169562339782715e-02) (148, 1.07399851083755493164e-01) (149, 1.39559842646121978760e-02) (150, 7.51710534095764160156e-02) (151, 1.33813977241516113281e-01) (152, 7.21790194511413574219e-02) (153, 3.00704874098300933838e-02) (154, 3.92920635640621185303e-02) (155, 1.03277005255222320557e-02) (156, 1.53710544109344482422e-01) (157, -1.79450970608741044998e-03) (158, -6.53726700693368911743e-03) (159, 8.65843892097473144531e-02) (160, -4.30951789021492004395e-02) (161, 2.23486460745334625244e-02) (162, 1.48344516754150390625e-01) (163, -2.27896794676780700684e-02) (164, 6.15250989794731140137e-02) (165, 8.11195448040962219238e-02) (166, 1.97248766198754310608e-03) (167, 1.20569847524166107178e-01) (168, 1.35767206549644470215e-01) (169, 1.15969993174076080322e-01) (170, 6.97343945503234863281e-02) (171, 1.32344365119934082031e-01) (172, 1.26789152622222900391e-01) (173, 2.65278038568794727325e-04) (174, 1.42760306596755981445e-01) (175, 1.93878598511219024658e-02) (176, 1.00018411874771118164e-01) (177, 1.07814490795135498047e-01) (178, 3.90117429196834564209e-02) (179, 5.22172525525093078613e-02) (180, -3.34305539727210998535e-02) (181, -4.10182476043701171875e-02) (182, 3.08301784098148345947e-02) (183, 8.35474431514739990234e-02) (184, 3.38512323796749114990e-02) (185, 1.14921241998672485352e-01) (186, 1.38674169778823852539e-01) (187, 3.23607213795185089111e-02) (188, -4.20743227005004882812e-02) (189, -2.30641439557075500488e-02) (190, -3.62559184432029724121e-02) (191, -4.03705090284347534180e-02) (192, 4.40834835171699523926e-02) (193, -4.31124418973922729492e-02) (194, -1.83611884713172912598e-02) (195, 1.45337745547294616699e-01) (196, 8.28060805797576904297e-02) (197, 2.84102745354175567627e-02) (198, 1.15776389837265014648e-01) (199, 6.33722320199012756348e-02) (200, 5.98494894802570343018e-03) (201, 3.03097553551197052002e-02) (202, 4.05155345797538757324e-02) (203, -2.24269554018974304199e-02) (204, 7.53740072250366210938e-02) (205, 2.80747897922992706299e-02) (206, 4.17598858475685119629e-02) (207, 2.01914198696613311768e-02) (208, 1.16392448544502258301e-02) (209, 1.57283097505569458008e-01) (210, 1.17207676172256469727e-01) (211, -7.94330891221761703491e-03) (212, 1.29351377487182617188e-01) (213, -7.16317445039749145508e-03) (214, 1.20403133332729339600e-01) (215, 8.00156872719526290894e-03) (216, 1.52557075023651123047e-01) (217, 1.03876262903213500977e-01) (218, 8.51612985134124755859e-02) (219, -4.47183102369308471680e-02) (220, 1.25611111521720886230e-01) (221, 9.37043726444244384766e-02) (222, -4.02898266911506652832e-02) (223, 1.44935585558414459229e-02) (224, 9.53909158706665039062e-02) (225, -1.38520188629627227783e-02) (226, 9.70010925084352493286e-03) (227, 2.29959674179553985596e-02) (228, 5.93572333455085754395e-02) (229, -2.97245159745216369629e-02) (230, 1.31167203187942504883e-01) (231, 1.10141187906265258789e-01) (232, 4.53842356801033020020e-02) (233, 1.64816994220018386841e-02) (234, 1.32513254880905151367e-01) (235, -3.44427675008773803711e-02) (236, 8.93554985523223876953e-02) (237, 1.90720763057470321655e-02) (238, 3.05476374924182891846e-02) (239, 1.14842742681503295898e-01) (240, -1.05583276599645614624e-02) (241, -7.44571583345532417297e-03) (242, 1.51698440313339233398e-01) (243, -3.64079996943473815918e-02) (244, 3.01900990307331085205e-02) (245, 1.16900533437728881836e-01) (246, 1.63925606757402420044e-02) (247, 2.75461114943027496338e-02) (248, 6.55757561326026916504e-02) (249, 1.46352887153625488281e-01) (250, 2.76267863810062408447e-02) (251, 3.59858237206935882568e-02) (252, 8.48561823368072509766e-02) (253, 3.21359448134899139404e-02) (254, 9.52783823013305664062e-02) (255, 2.50460691750049591064e-02) (256, 3.22787761688232421875e-01) (0, 4.51828688383102416992e-01) (1, 3.94892275333404541016e-01) (2, 2.69290357828140258789e-01) (3, 2.66903162002563476562e-01) (4, 3.70858430862426757812e-01) (5, 4.24230545759201049805e-01) (6, 3.57086420059204101562e-01) (7, 4.32139128446578979492e-01) (8, 4.01542752981185913086e-01) (9, 3.67442667484283447266e-01) (10, 3.66293579339981079102e-01) (11, 2.65413790941238403320e-01) (12, 4.42789286375045776367e-01) (13, 3.25935304164886474609e-01) (14, 2.99654453992843627930e-01) (15, 2.80142545700073242188e-01) (16, 3.22432667016983032227e-01) (17, 3.08045446872711181641e-01) (18, 3.55131655931472778320e-01) (19, 2.84132152795791625977e-01) (20, 3.69237035512924194336e-01) (21, 4.27476733922958374023e-01) (22, 3.94506901502609252930e-01) (23, 3.60388845205307006836e-01) (24, 2.99902498722076416016e-01) (25, 2.75291681289672851562e-01) (26, 2.90043979883193969727e-01) (27, 3.76837491989135742188e-01) (28, 4.15369063615798950195e-01) (29, 3.59889060258865356445e-01) (30, 2.84719347953796386719e-01) (31, 4.09945517778396606445e-01) (32, 2.97529041767120361328e-01) (33, 2.96757459640502929688e-01) (34, 4.19596463441848754883e-01) (35, 4.11135226488113403320e-01) (36, 2.63735741376876831055e-01) (37, 3.19430619478225708008e-01) (38, 3.86022090911865234375e-01) (39, 4.08026248216629028320e-01) (40, 4.29621011018753051758e-01) (41, 2.95063376426696777344e-01) (42, 4.16187793016433715820e-01) (43, 4.15158033370971679688e-01) (44, 3.63746434450149536133e-01) (45, 2.58590012788772583008e-01) (46, 4.38048332929611206055e-01) (47, 4.28926825523376464844e-01) (48, 3.09383153915405273438e-01) (49, 3.35927724838256835938e-01) (50, 4.55806702375411987305e-01) (51, 4.21367943286895751953e-01) (52, 3.06152164936065673828e-01) (53, 3.93061369657516479492e-01) (54, 3.24504524469375610352e-01) (55, 3.48802447319030761719e-01) (56, 4.11100834608078002930e-01) (57, 3.57296258211135864258e-01) (58, 2.68387615680694580078e-01) (59, 3.69217634201049804688e-01) (60, 2.59932994842529296875e-01) (61, 2.95854717493057250977e-01) (62, 3.21910887956619262695e-01) (63, 3.00209820270538330078e-01) (64, 3.35359960794448852539e-01) (65, 2.84255057573318481445e-01) (66, 4.54092830419540405273e-01) (67, 3.41843485832214355469e-01) (68, 3.46433430910110473633e-01) (69, 3.82862627506256103516e-01) (70, 2.92617410421371459961e-01) (71, 3.18802148103713989258e-01) (72, 4.20673757791519165039e-01) (73, 4.51552957296371459961e-01) (74, 2.76707917451858520508e-01) (75, 3.27167928218841552734e-01) (76, 4.52890723943710327148e-01) (77, 2.57503986358642578125e-01) (78, 2.98842459917068481445e-01) (79, 3.05021584033966064453e-01) (80, 3.36179435253143310547e-01) (81, 2.97396898269653320312e-01) (82, 2.69137263298034667969e-01) (83, 3.85079324245452880859e-01) (84, 4.33206051588058471680e-01) (85, 3.36389541625976562500e-01) (86, 2.76629477739334106445e-01) (87, 3.87054592370986938477e-01) (88, 4.36433494091033935547e-01) (89, 2.87764877080917358398e-01) (90, 2.99019932746887207031e-01) (91, 4.39114242792129516602e-01) (92, 3.26367378234863281250e-01) (93, 3.63678574562072753906e-01) (94, 2.82071799039840698242e-01) (95, 4.04475063085556030273e-01) (96, 3.90681385993957519531e-01) (97, -1.15388679504394531250e+00) (98, 2.89066225290298461914e-01) (99, 2.52556324005126953125e-01) (100, 3.63981723785400390625e-01) (101, -5.73245644569396972656e-01) (102, 3.63643884658813476562e-01) (103, 3.67944180965423583984e-01) (104, 3.41879844665527343750e-01) (105, -5.48267781734466552734e-01) (106, 4.37859803438186645508e-01) (107, 3.14370542764663696289e-01) (108, 3.33813667297363281250e-01) (109, 2.52143830060958862305e-01) (110, -1.89439773559570312500e+00) (111, -2.43083667755126953125e+00) (112, 3.30692082643508911133e-01) (113, 3.73554527759552001953e-01) (114, -3.07341933250427246094e+00) (115, -4.23036396503448486328e-01) (116, 6.40489816665649414062e+00) (117, 3.59945118427276611328e-01) (118, 4.25350755453109741211e-01) (119, 4.43440794944763183594e-01) (120, 4.17763859033584594727e-01) (121, 2.78215825557708740234e-01) (122, 4.14205372333526611328e-01) (123, 2.86878943443298339844e-01) (124, 3.73544752597808837891e-01) (125, 4.39024925231933593750e-01) (126, 4.34101760387420654297e-01) (127, 3.06973844766616821289e-01) (128, 2.74852216243743896484e-01) (129, 2.79806882143020629883e-01) (130, 3.44774067401885986328e-01) (131, 4.23145323991775512695e-01) (132, 3.33094894886016845703e-01) (133, 4.13744300603866577148e-01) (134, 3.18647295236587524414e-01) (135, 4.09764677286148071289e-01) (136, 3.17360103130340576172e-01) (137, 2.99254834651947021484e-01) (138, 4.51693028211593627930e-01) (139, 4.36417579650878906250e-01) (140, 3.36642533540725708008e-01) (141, 3.56580704450607299805e-01) (142, 4.04022365808486938477e-01) (143, 3.98984909057617187500e-01) (144, 2.73353308439254760742e-01) (145, 3.14644068479537963867e-01) (146, 4.22091156244277954102e-01) (147, 2.69263207912445068359e-01) (148, 4.44643080234527587891e-01) (149, 3.90189677476882934570e-01) (150, 4.44354325532913208008e-01) (151, 4.05154675245285034180e-01) (152, 4.00055825710296630859e-01) (153, 4.01307433843612670898e-01) (154, 4.34781372547149658203e-01) (155, 3.16348284482955932617e-01) (156, 3.83080095052719116211e-01) (157, 4.11630868911743164062e-01) (158, 3.66069912910461425781e-01) (159, 3.86512815952301025391e-01) (160, 4.20294344425201416016e-01) (161, 4.38401758670806884766e-01) (162, 3.37215960025787353516e-01) (163, 2.96136945486068725586e-01) (164, 3.94893795251846313477e-01) (165, 3.98611009120941162109e-01) (166, 4.33459460735321044922e-01) (167, 4.55001682043075561523e-01) (168, 4.40613597631454467773e-01) (169, 4.26235109567642211914e-01) (170, 4.18977051973342895508e-01) (171, 3.04813891649246215820e-01) (172, 3.27228665351867675781e-01) (173, 3.65747153759002685547e-01) (174, 4.31356638669967651367e-01) (175, 3.43329727649688720703e-01) (176, 4.37030136585235595703e-01) (177, 3.96195560693740844727e-01) (178, 3.70530605316162109375e-01) (179, 4.10529792308807373047e-01) (180, 3.44322860240936279297e-01) (181, 3.56537908315658569336e-01) (182, 3.58432203531265258789e-01) (183, 2.87126392126083374023e-01) (184, 3.00593048334121704102e-01) (185, 3.51151257753372192383e-01) (186, 3.46222490072250366211e-01) (187, 4.27515655755996704102e-01) (188, 2.90339887142181396484e-01) (189, 4.53741341829299926758e-01) (190, 3.55681449174880981445e-01) (191, 4.68571901321411132812e-01) (192, 4.20999675989151000977e-01) (193, 4.21549975872039794922e-01) (194, 2.92266666889190673828e-01) (195, 2.59450852870941162109e-01) (196, 3.62908720970153808594e-01) (197, 2.68473863601684570312e-01) (198, 3.56390595436096191406e-01) (199, 3.46270024776458740234e-01) (200, 4.39121872186660766602e-01) (201, 3.18115353584289550781e-01) (202, 3.93831670284271240234e-01) (203, 3.09098213911056518555e-01) (204, 4.26610261201858520508e-01) (205, 3.67936044931411743164e-01) (206, 3.95175695419311523438e-01) (207, 3.92496973276138305664e-01) (208, 1.06823027133941650391e+00) (209, 3.82445067167282104492e-01) (210, 3.45774501562118530273e-01) (211, 3.78760010004043579102e-01) (212, 3.78454566001892089844e-01) (213, 4.46954429149627685547e-01) (214, 3.93444240093231201172e-01) (215, 4.07700210809707641602e-01) (216, 3.25663477182388305664e-01) (217, 2.67224490642547607422e-01) (218, 3.62773686647415161133e-01) (219, 3.58751147985458374023e-01) (220, 4.49822396039962768555e-01) (221, 4.47107702493667602539e-01) (222, 3.54880839586257934570e-01) (223, 4.13569837808609008789e-01) (224, 4.11405384540557861328e-01) (225, 3.89895260334014892578e-01) (226, 3.14958751201629638672e-01) (227, 3.17061811685562133789e-01) (228, 4.01116877794265747070e-01) (229, 4.14097070693969726562e-01) (230, 4.06079560518264770508e-01) (231, 3.82986456155776977539e-01) (232, 2.74960160255432128906e-01) (233, 3.42658966779708862305e-01) (234, 4.34832423925399780273e-01) (235, 4.44318175315856933594e-01) (236, 4.53342765569686889648e-01) (237, 3.72755855321884155273e-01) (238, 3.79562884569168090820e-01) (239, 3.02969753742218017578e-01) (240, 4.08767670392990112305e-01) (241, 2.68085092306137084961e-01) (242, 4.24477487802505493164e-01) (243, 3.29969972372055053711e-01) (244, 2.57787287235260009766e-01) (245, 3.60669493675231933594e-01) (246, 2.80417889356613159180e-01) (247, 3.26198488473892211914e-01) (248, 3.70641738176345825195e-01) (249, 3.85939329862594604492e-01) (250, 4.27697360515594482422e-01) (251, 3.63211899995803833008e-01) (252, 3.75794738531112670898e-01) (253, 3.25325936079025268555e-01) (254, 3.19529473781585693359e-01) (255, 3.29947859048843383789e-01) (256, -9.72930043935775756836e-02) (0, 3.87064456939697265625e-01) (1, 3.99585992097854614258e-01) (2, 4.11662101745605468750e-01) (3, 3.43909263610839843750e-01) (4, 3.48413228988647460938e-01) (5, 3.37396204471588134766e-01) (6, 3.61617207527160644531e-01) (7, 4.33820009231567382812e-01) (8, 3.14976334571838378906e-01) (9, 3.48683118820190429688e-01) (10, 4.29910421371459960938e-01) (11, 4.30480003356933593750e-01) (12, 2.70993709564208984375e-01) (13, 2.75627851486206054688e-01) (14, 3.81995379924774169922e-01) (15, 2.81826555728912353516e-01) (16, 4.42853271961212158203e-01) (17, 4.54713135957717895508e-01) (18, 2.82361567020416259766e-01) (19, 3.46270322799682617188e-01) (20, 2.77878701686859130859e-01) (21, 3.51307809352874755859e-01) (22, 4.59659844636917114258e-01) (23, 4.06565755605697631836e-01) (24, 3.21752846240997314453e-01) (25, 3.65619421005249023438e-01) (26, 3.25108170509338378906e-01) (27, 3.89826536178588867188e-01) (28, 4.27896618843078613281e-01) (29, 3.97803813219070434570e-01) (30, 3.90543162822723388672e-01) (31, 3.47880244255065917969e-01) (32, 3.30308973789215087891e-01) (33, 3.35124433040618896484e-01) (34, 4.24708783626556396484e-01) (35, 4.11641478538513183594e-01) (36, 4.05439883470535278320e-01) (37, 3.19245100021362304688e-01) (38, 3.78380537033081054688e-01) (39, 4.53335553407669067383e-01) (40, 4.00847524404525756836e-01) (41, 3.41210126876831054688e-01) (42, 4.16734695434570312500e-01) (43, 4.04760450124740600586e-01) (44, 3.49757254123687744141e-01) (45, 3.31649184226989746094e-01) (46, 4.19506251811981201172e-01) (47, 3.25529515743255615234e-01) (48, 3.19281458854675292969e-01) (49, 4.34787064790725708008e-01) (50, 4.04719144105911254883e-01) (51, 3.30079376697540283203e-01) (52, 3.19013953208923339844e-01) (53, 3.97298127412796020508e-01) (54, 2.69564270973205566406e-01) (55, 3.73686075210571289062e-01) (56, 2.95836687088012695312e-01) (57, 3.27591717243194580078e-01) (58, 2.96431779861450195312e-01) (59, 4.56652551889419555664e-01) (60, 4.58314865827560424805e-01) (61, 4.19894278049468994141e-01) (62, 3.37451934814453125000e-01) (63, 3.21542918682098388672e-01) (64, 2.87937819957733154297e-01) (65, 2.95079886913299560547e-01) (66, 4.66103672981262207031e-01) (67, 4.26296949386596679688e-01) (68, 3.47244262695312500000e-01) (69, 3.77403259277343750000e-01) (70, 4.12551581859588623047e-01) (71, 2.81010866165161132812e-01) (72, 4.51532721519470214844e-01) (73, 3.62205326557159423828e-01) (74, 4.18690621852874755859e-01) (75, 3.34209024906158447266e-01) (76, 4.26773786544799804688e-01) (77, 3.71115982532501220703e-01) (78, 3.92657846212387084961e-01) (79, 2.78974354267120361328e-01) (80, 3.38822126388549804688e-01) (81, 3.30296099185943603516e-01) (82, 3.41973006725311279297e-01) (83, 3.90755385160446166992e-01) (84, 4.60513502359390258789e-01) (85, 3.44456493854522705078e-01) (86, 2.97360599040985107422e-01) (87, 2.89269268512725830078e-01) (88, 4.04967516660690307617e-01) (89, 3.26711595058441162109e-01) (90, 2.78840899467468261719e-01) (91, 3.96201461553573608398e-01) (92, 2.79524981975555419922e-01) (93, 3.49212110042572021484e-01) (94, 4.50663685798645019531e-01) (95, 3.00382018089294433594e-01) (96, 3.77211153507232666016e-01) (97, -3.24320167303085327148e-01) (98, 4.59598273038864135742e-01) (99, 4.45408672094345092773e-01) (100, 3.48486840724945068359e-01) (101, -3.13342630863189697266e-01) (102, 2.71304726600646972656e-01) (103, 3.44460606575012207031e-01) (104, 4.04126673936843872070e-01) (105, -5.54582290351390838623e-02) (106, 4.49359089136123657227e-01) (107, 4.97656553983688354492e-01) (108, 1.96170192211866378784e-02) (109, 3.25643956661224365234e-01) (110, 4.39992845058441162109e-01) (111, -1.32711064815521240234e+00) (112, 3.40099394321441650391e-01) (113, 3.46672177314758300781e-01) (114, -3.42580616474151611328e-01) (115, 8.22551771998405456543e-02) (116, 3.25258331298828125000e+01) (117, 3.40679466724395751953e-01) (118, 4.16002333164215087891e-01) (119, 4.61699485778808593750e-01) (120, 4.12276327610015869141e-01) (121, 5.27527451515197753906e-01) (122, 3.90820086002349853516e-01) (123, 4.24720525741577148438e-01) (124, 3.09893727302551269531e-01) (125, 2.74637937545776367188e-01) (126, 4.58021849393844604492e-01) (127, 4.20024156570434570312e-01) (128, 5.44667720794677734375e-01) (129, 5.37963330745697021484e-01) (130, 4.97742205858230590820e-01) (131, 3.50255459547042846680e-01) (132, 3.88527214527130126953e-01) (133, 4.14541959762573242188e-01) (134, 4.27551329135894775391e-01) (135, 4.21723932027816772461e-01) (136, 3.70375573635101318359e-01) (137, 3.72059285640716552734e-01) (138, 4.14445519447326660156e-01) (139, 4.30328518152236938477e-01) (140, 4.42228466272354125977e-01) (141, 4.19144749641418457031e-01) (142, 3.61854732036590576172e-01) (143, 3.75528782606124877930e-01) (144, 2.98736095428466796875e-01) (145, 4.17139530181884765625e-01) (146, 3.02177727222442626953e-01) (147, 4.55703288316726684570e-01) (148, 3.02704095840454101562e-01) (149, 4.51099336147308349609e-01) (150, 3.50557029247283935547e-01) (151, 4.47899639606475830078e-01) (152, 4.11780893802642822266e-01) (153, 3.74531447887420654297e-01) (154, 4.05539244413375854492e-01) (155, 4.54593867063522338867e-01) (156, 3.82088601589202880859e-01) (157, 3.96480232477188110352e-01) (158, 4.07537132501602172852e-01) (159, 3.72251272201538085938e-01) (160, 3.79938483238220214844e-01) (161, 3.50774228572845458984e-01) (162, 4.55342024564743041992e-01) (163, 3.01384866237640380859e-01) (164, 2.98235297203063964844e-01) (165, 4.15812492370605468750e-01) (166, 4.55944091081619262695e-01) (167, 4.01530176401138305664e-01) (168, 3.20790886878967285156e-01) (169, 4.03308659791946411133e-01) (170, 3.64693820476531982422e-01) (171, 2.95854449272155761719e-01) (172, 3.55372548103332519531e-01) (173, 4.59467798471450805664e-01) (174, 4.04218465089797973633e-01) (175, 3.87027859687805175781e-01) (176, 4.96950656175613403320e-01) (177, 4.39315468072891235352e-01) (178, 3.75734299421310424805e-01) (179, 4.45149838924407958984e-01) (180, 4.23417836427688598633e-01) (181, 5.46550691127777099609e-01) (182, 4.25968527793884277344e-01) (183, 3.68117839097976684570e-01) (184, 4.54001247882843017578e-01) (185, 3.64510923624038696289e-01) (186, 3.55630844831466674805e-01) (187, 2.81668931245803833008e-01) (188, 2.93910235166549682617e-01) (189, 3.83427202701568603516e-01) (190, 4.74179625511169433594e-01) (191, 4.06768023967742919922e-01) (192, 3.79696547985076904297e-01) (193, 3.75016629695892333984e-01) (194, 4.40988153219223022461e-01) (195, 3.09816241264343261719e-01) (196, 3.61962437629699707031e-01) (197, 4.67621475458145141602e-01) (198, 3.45300436019897460938e-01) (199, 3.77458333969116210938e-01) (200, 3.66079092025756835938e-01) (201, 4.42913591861724853516e-01) (202, 4.06232029199600219727e-01) (203, 4.54370945692062377930e-01) (204, 4.35300439596176147461e-01) (205, 3.43369662761688232422e-01) (206, 3.74317884445190429688e-01) (207, 3.77745985984802246094e-01) (208, 9.51410710811614990234e-01) (209, 8.61269176006317138672e-01) (210, 3.55814933776855468750e-01) (211, 2.71857142448425292969e-01) (212, 2.74933040142059326172e-01) (213, 3.14702570438385009766e-01) (214, 3.72810244560241699219e-01) (215, 3.74429404735565185547e-01) (216, 4.12048697471618652344e-01) (217, 4.61276322603225708008e-01) (218, 3.88933598995208740234e-01) (219, 4.38794225454330444336e-01) (220, 2.90198564529418945312e-01) (221, 3.08608233928680419922e-01) (222, 3.78397285938262939453e-01) (223, 4.02814358472824096680e-01) (224, 4.16544139385223388672e-01) (225, 3.52304577827453613281e-01) (226, 3.46584618091583251953e-01) (227, 2.73211479187011718750e-01) (228, 3.15074980258941650391e-01) (229, 4.24804329872131347656e-01) (230, 3.83589029312133789062e-01) (231, 4.14073348045349121094e-01) (232, 4.00636941194534301758e-01) (233, 3.22740256786346435547e-01) (234, 4.01363402605056762695e-01) (235, 3.68856489658355712891e-01) (236, 3.99029165506362915039e-01) (237, 3.08600425720214843750e-01) (238, 2.79521644115447998047e-01) (239, 4.47552621364593505859e-01) (240, 3.24407041072845458984e-01) (241, 3.68255794048309326172e-01) (242, 4.52329009771347045898e-01) (243, 3.32259356975555419922e-01) (244, 4.15877640247344970703e-01) (245, 3.58058393001556396484e-01) (246, 4.39608007669448852539e-01) (247, 3.60845446586608886719e-01) (248, 3.52253794670104980469e-01) (249, 3.61460745334625244141e-01) (250, 3.32558751106262207031e-01) (251, 3.75371575355529785156e-01) (252, 4.02988225221633911133e-01) (253, 4.43875372409820556641e-01) (254, 3.11105072498321533203e-01) (255, 3.52451443672180175781e-01) (256, -2.48143505305051803589e-02) (0, 1.39287650585174560547e-01) (1, 1.07260771095752716064e-01) (2, 1.25771850347518920898e-01) (3, 9.70109626650810241699e-02) (4, 2.37690582871437072754e-02) (5, 7.27642774581909179688e-02) (6, 3.05670872330665588379e-02) (7, 7.94285014271736145020e-02) (8, 2.07046970725059509277e-01) (9, 1.32342875003814697266e-01) (10, 2.11376979947090148926e-01) (11, 4.85665202140808105469e-02) (12, 1.44783765077590942383e-01) (13, 1.91848710179328918457e-01) (14, 1.05892755091190338135e-01) (15, 4.59586381912231445312e-02) (16, 1.77096828818321228027e-01) (17, 1.71071425080299377441e-01) (18, 1.94755539298057556152e-01) (19, 6.80742561817169189453e-02) (20, 1.43598556518554687500e-01) (21, 8.85200276970863342285e-02) (22, 1.53247401118278503418e-01) (23, 3.79783809185028076172e-02) (24, 1.53998121619224548340e-01) (25, 6.15380778908729553223e-02) (26, 1.73885896801948547363e-01) (27, 1.30792543292045593262e-01) (28, 1.05562396347522735596e-01) (29, 5.92564456164836883545e-02) (30, 1.92810758948326110840e-01) (31, 2.90905609726905822754e-02) (32, 1.50757953524589538574e-01) (33, 1.02822981774806976318e-01) (34, 1.10342107713222503662e-01) (35, 1.58767625689506530762e-01) (36, 1.59828022122383117676e-01) (37, 1.25149831175804138184e-01) (38, 2.24366262555122375488e-02) (39, 1.51115462183952331543e-01) (40, 4.17331755161285400391e-02) (41, 1.80540755391120910645e-02) (42, 1.83922603726387023926e-01) (43, 1.70757517218589782715e-01) (44, 1.94143369793891906738e-01) (45, 7.40558356046676635742e-02) (46, 2.00956776738166809082e-01) (47, 1.55480667948722839355e-01) (48, 2.93677523732185363770e-02) (49, 1.79952785372734069824e-01) (50, 2.07795545458793640137e-01) (51, 1.57206937670707702637e-01) (52, 5.27133047580718994141e-02) (53, 1.45283430814743041992e-01) (54, 1.79425910115242004395e-01) (55, 1.90952017903327941895e-01) (56, 1.91062137484550476074e-01) (57, 1.37552276253700256348e-01) (58, 1.05984903872013092041e-01) (59, 8.08649882674217224121e-02) (60, 1.81049332022666931152e-01) (61, 8.30361172556877136230e-02) (62, 9.41961184144020080566e-02) (63, 1.16047643125057220459e-01) (64, 1.70099869370460510254e-01) (65, 1.88778981566429138184e-01) (66, 5.90557418763637542725e-02) (67, 1.14168219268321990967e-01) (68, 9.81692597270011901855e-02) (69, 6.57329559326171875000e-02) (70, 4.95241880416870117188e-02) (71, 1.24143041670322418213e-01) (72, 6.80276304483413696289e-02) (73, 1.76872685551643371582e-02) (74, 7.91410282254219055176e-02) (75, 4.64114844799041748047e-02) (76, 7.59836956858634948730e-02) (77, 6.43382966518402099609e-02) (78, 1.86132743954658508301e-01) (79, 8.95920321345329284668e-02) (80, 2.85315737128257751465e-02) (81, 1.78168758749961853027e-01) (82, 3.10394577682018280029e-02) (83, 6.54854476451873779297e-02) (84, 1.07692517340183258057e-01) (85, 1.94705948233604431152e-01) (86, 4.06779497861862182617e-02) (87, 8.29951241612434387207e-02) (88, 1.16498582065105438232e-01) (89, 1.30903571844100952148e-01) (90, 1.48100852966308593750e-01) (91, 8.17883983254432678223e-02) (92, 1.98180332779884338379e-01) (93, 2.65374854207038879395e-02) (94, 1.82076796889305114746e-01) (95, 1.52520671486854553223e-01) (96, 1.99557080864906311035e-01) (97, 1.01960815489292144775e-01) (98, 5.09293824434280395508e-02) (99, -1.03035233914852142334e-01) (100, -3.13328742980957031250e-01) (101, 2.18021780252456665039e-01) (102, 1.90671533346176147461e-01) (103, 1.27614960074424743652e-01) (104, 8.69430154561996459961e-02) (105, 9.76757109165191650391e-01) (106, 1.58049777150154113770e-01) (107, 1.46629214286804199219e-01) (108, -8.39664399623870849609e-01) (109, 1.08977012336254119873e-01) (110, 3.41990202665328979492e-01) (111, 1.96840763092041015625e-01) (112, 7.13862255215644836426e-02) (113, 3.53694893419742584229e-02) (114, 1.80986478924751281738e-01) (115, -3.65853458642959594727e-01) (116, 1.55754435062408447266e+00) (117, 1.70268759131431579590e-01) (118, 3.02341468632221221924e-02) (119, 1.15427479147911071777e-01) (120, 1.04871861636638641357e-01) (121, 1.82342454791069030762e-01) (122, 1.81456610560417175293e-01) (123, 8.72926637530326843262e-02) (124, 1.93337813019752502441e-01) (125, 1.47991150617599487305e-01) (126, 2.40538492798805236816e-02) (127, 1.77135363221168518066e-01) (128, 1.57015189528465270996e-01) (129, 5.86342364549636840820e-02) (130, 4.33426797389984130859e-02) (131, 1.71918775886297225952e-02) (132, 1.28158703446388244629e-01) (133, 1.79337933659553527832e-02) (134, 1.29047423601150512695e-01) (135, 1.99021384119987487793e-01) (136, 5.59065192937850952148e-02) (137, 7.15548247098922729492e-02) (138, 1.30108311772346496582e-01) (139, 1.42458289861679077148e-01) (140, 1.84435710310935974121e-01) (141, 1.35027930140495300293e-01) (142, 4.17819917201995849609e-02) (143, 5.97255490720272064209e-02) (144, 1.55227616429328918457e-01) (145, 1.90831974148750305176e-01) (146, 2.69486829638481140137e-02) (147, 1.54373720288276672363e-01) (148, 1.64800390601158142090e-01) (149, 6.14075288176536560059e-02) (150, 5.42589128017425537109e-02) (151, 5.39127588272094726562e-02) (152, 2.82077416777610778809e-02) (153, 2.01732590794563293457e-02) (154, 1.25446096062660217285e-01) (155, 2.05786153674125671387e-01) (156, 1.52405008673667907715e-01) (157, 1.33740589022636413574e-01) (158, 1.67161986231803894043e-01) (159, 9.42501202225685119629e-02) (160, 1.77205011248588562012e-01) (161, 1.94155648350715637207e-01) (162, 9.56825986504554748535e-02) (163, 8.96040573716163635254e-02) (164, 1.96919634938240051270e-01) (165, 2.08970651030540466309e-01) (166, 7.28659182786941528320e-02) (167, 3.70666384696960449219e-02) (168, 6.47659599781036376953e-02) (169, 1.67230740189552307129e-01) (170, 1.63765534758567810059e-01) (171, 3.34421694278717041016e-02) (172, 1.06483139097690582275e-01) (173, 1.89198508858680725098e-01) (174, 7.74083063006401062012e-02) (175, 4.59512472152709960938e-02) (176, 1.64270952343940734863e-01) (177, 8.85975733399391174316e-02) (178, 1.83975949883460998535e-01) (179, 1.13311737775802612305e-01) (180, 1.34245842695236206055e-01) (181, 2.24754028022289276123e-02) (182, 1.52054801583290100098e-01) (183, 1.46694183349609375000e-01) (184, 2.68892608582973480225e-02) (185, 6.17413148283958435059e-02) (186, 1.36131182312965393066e-01) (187, 1.63534834980964660645e-01) (188, 1.79722532629966735840e-01) (189, 8.75335633754730224609e-02) (190, 4.20254804193973541260e-02) (191, 1.41168013215065002441e-01) (192, 6.71088695526123046875e-02) (193, 1.22538276016712188721e-01) (194, 2.15012714266777038574e-01) (195, 2.86058615893125534058e-02) (196, 1.15532174706459045410e-01) (197, 7.19018802046775817871e-02) (198, 6.95762187242507934570e-02) (199, 1.64756104350090026855e-01) (200, 4.35744374990463256836e-02) (201, 1.75822451710700988770e-02) (202, 1.82438895106315612793e-01) (203, 1.34298294782638549805e-01) (204, 1.91610977053642272949e-01) (205, 4.40876781940460205078e-02) (206, 1.64490148425102233887e-01) (207, 1.40711992979049682617e-01) (208, 1.15609295666217803955e-01) (209, 1.31463050842285156250e-01) (210, 3.88537943363189697266e-02) (211, 3.54122221469879150391e-02) (212, 1.40601754188537597656e-01) (213, 1.75149187445640563965e-01) (214, 1.66347011923789978027e-01) (215, 1.52321204543113708496e-01) (216, 2.11310014128684997559e-02) (217, 8.73081460595130920410e-02) (218, 1.00685961544513702393e-01) (219, 1.85094133019447326660e-01) (220, 1.59672006964683532715e-01) (221, 1.27541735768318176270e-01) (222, 1.10502474009990692139e-01) (223, 2.11021497845649719238e-01) (224, 3.43205183744430541992e-02) (225, 1.09755642712116241455e-01) (226, 4.35309708118438720703e-02) (227, 1.34310647845268249512e-01) (228, 1.66115507483482360840e-01) (229, 9.73478034138679504395e-02) (230, 8.33071097731590270996e-02) (231, 1.93930551409721374512e-01) (232, 9.91706326603889465332e-02) (233, 4.99864816665649414062e-02) (234, 1.12469188868999481201e-01) (235, 7.50220790505409240723e-02) (236, 7.83147439360618591309e-02) (237, 6.11998364329338073730e-02) (238, 1.99974700808525085449e-01) (239, 1.79481372237205505371e-01) (240, 1.78736642003059387207e-01) (241, 2.30689719319343566895e-02) (242, 1.99134185910224914551e-01) (243, 1.03578723967075347900e-01) (244, 1.82458773255348205566e-01) (245, 1.49721667170524597168e-01) (246, 4.01404052972793579102e-02) (247, 1.87830373644828796387e-01) (248, 2.12703123688697814941e-02) (249, 1.25067010521888732910e-01) (250, 1.57164976000785827637e-01) (251, 1.65182933211326599121e-01) (252, 3.68492156267166137695e-02) (253, 5.19079267978668212891e-02) (254, 1.60444900393486022949e-01) (255, 5.54103255271911621094e-02) (256, 2.77614474296569824219e-01) (0, 5.27862846851348876953e-01) (1, 5.13607978820800781250e-01) (2, 4.35906648635864257812e-01) (3, 4.09451246261596679688e-01) (4, 3.81155669689178466797e-01) (5, 4.14077699184417724609e-01) (6, 4.92862522602081298828e-01) (7, 4.15382742881774902344e-01) (8, 5.10787487030029296875e-01) (9, 5.52125275135040283203e-01) (10, 4.77938115596771240234e-01) (11, 3.56227934360504150391e-01) (12, 5.36340475082397460938e-01) (13, 4.41659986972808837891e-01) (14, 5.19205033779144287109e-01) (15, 5.43650031089782714844e-01) (16, 4.25034642219543457031e-01) (17, 4.07024383544921875000e-01) (18, 5.10349214076995849609e-01) (19, 3.58996808528900146484e-01) (20, 4.31405365467071533203e-01) (21, 4.82420086860656738281e-01) (22, 3.64507734775543212891e-01) (23, 5.40713012218475341797e-01) (24, 4.23825502395629882812e-01) (25, 5.13931155204772949219e-01) (26, 3.61802756786346435547e-01) (27, 4.59973990917205810547e-01) (28, 4.58616495132446289062e-01) (29, 4.01453733444213867188e-01) (30, 3.90118837356567382812e-01) (31, 4.31073486804962158203e-01) (32, 3.59655737876892089844e-01) (33, 4.70619559288024902344e-01) (34, 4.85118865966796875000e-01) (35, 3.85405540466308593750e-01) (36, 5.29291450977325439453e-01) (37, 4.22575473785400390625e-01) (38, 4.45382416248321533203e-01) (39, 4.84672963619232177734e-01) (40, 4.19294834136962890625e-01) (41, 3.67914676666259765625e-01) (42, 4.85495030879974365234e-01) (43, 4.00229334831237792969e-01) (44, 4.54168736934661865234e-01) (45, 4.49294149875640869141e-01) (46, 3.88473391532897949219e-01) (47, 5.23797512054443359375e-01) (48, 5.00912666320800781250e-01) (49, 5.43416798114776611328e-01) (50, 5.27388453483581542969e-01) (51, 3.76912117004394531250e-01) (52, 4.70430910587310791016e-01) (53, 5.36490321159362792969e-01) (54, 3.62219154834747314453e-01) (55, 5.38850545883178710938e-01) (56, 4.95015501976013183594e-01) (57, 3.68616044521331787109e-01) (58, 4.43418622016906738281e-01) (59, 3.98226082324981689453e-01) (60, 4.14663851261138916016e-01) (61, 4.78131532669067382812e-01) (62, 4.73893642425537109375e-01) (63, 4.18913722038269042969e-01) (64, 3.93345177173614501953e-01) (65, 4.03606593608856201172e-01) (66, 4.48913395404815673828e-01) (67, 3.67230653762817382812e-01) (68, 4.70776200294494628906e-01) (69, 5.38889944553375244141e-01) (70, 4.96497750282287597656e-01) (71, 5.34665226936340332031e-01) (72, 5.51398754119873046875e-01) (73, 4.26586866378784179688e-01) (74, 3.79488587379455566406e-01) (75, 4.50161516666412353516e-01) (76, 5.20475089550018310547e-01) (77, 4.12556111812591552734e-01) (78, 4.18553173542022705078e-01) (79, 4.65981781482696533203e-01) (80, 4.00566935539245605469e-01) (81, 3.90535652637481689453e-01) (82, 4.87488031387329101562e-01) (83, 5.15591919422149658203e-01) (84, 3.71620059013366699219e-01) (85, 4.94301259517669677734e-01) (86, 4.99036550521850585938e-01) (87, 5.11229634284973144531e-01) (88, 5.07511496543884277344e-01) (89, 3.87049257755279541016e-01) (90, 5.54049849510192871094e-01) (91, 3.66769373416900634766e-01) (92, 5.09774863719940185547e-01) (93, 4.72537577152252197266e-01) (94, 4.30277228355407714844e-01) (95, 5.47714233398437500000e-01) (96, 5.20738303661346435547e-01) (97, 3.00784409046173095703e-01) (98, 3.59538972377777099609e-01) (99, 4.10502046346664428711e-01) (100, -4.82666343450546264648e-02) (101, 3.93104463815689086914e-01) (102, 4.15367841720581054688e-01) (103, 5.03465533256530761719e-01) (104, 3.72336715459823608398e-01) (105, 2.41227328777313232422e-01) (106, 3.98017108440399169922e-01) (107, 5.36881029605865478516e-01) (108, 4.51795190572738647461e-01) (109, 4.22301024198532104492e-01) (110, -6.13515555858612060547e-01) (111, 3.39885264635086059570e-01) (112, 4.57430809736251831055e-01) (113, 3.79538953304290771484e-01) (114, 7.64317214488983154297e-01) (115, -3.42780090868473052979e-02) (116, 3.39527159929275512695e-01) (117, -1.98309645056724548340e-01) (118, 4.68331992626190185547e-01) (119, 3.90623539686203002930e-01) (120, 4.77221786975860595703e-01) (121, 3.87059599161148071289e-01) (122, 4.02198553085327148438e-01) (123, 4.31590735912322998047e-01) (124, 3.84107589721679687500e-01) (125, 3.56774687767028808594e-01) (126, 4.23898994922637939453e-01) (127, 5.49440026283264160156e-01) (128, 5.25153517723083496094e-01) (129, 4.28032040596008300781e-01) (130, 4.30142700672149658203e-01) (131, 4.77016329765319824219e-01) (132, 3.73256981372833251953e-01) (133, 4.90104675292968750000e-01) (134, 4.24871921539306640625e-01) (135, 3.89662861824035644531e-01) (136, 3.74149262905120849609e-01) (137, 4.67483103275299072266e-01) (138, 3.71137917041778564453e-01) (139, 5.15344083309173583984e-01) (140, 3.73241603374481201172e-01) (141, 4.63188886642456054688e-01) (142, 5.01699984073638916016e-01) (143, 5.14129877090454101562e-01) (144, 4.87321913242340087891e-01) (145, 4.48241829872131347656e-01) (146, 4.71232235431671142578e-01) (147, 4.50350403785705566406e-01) (148, 5.38414478302001953125e-01) (149, 3.84158372879028320312e-01) (150, 3.65484356880187988281e-01) (151, 4.60230231285095214844e-01) (152, 4.95728373527526855469e-01) (153, 4.91981863975524902344e-01) (154, 5.36415159702301025391e-01) (155, 5.24430096149444580078e-01) (156, 4.93350684642791748047e-01) (157, 4.04908239841461181641e-01) (158, 5.18464148044586181641e-01) (159, 4.63098287582397460938e-01) (160, 4.77534413337707519531e-01) (161, 3.93200933933258056641e-01) (162, 3.84708702564239501953e-01) (163, 4.95385468006134033203e-01) (164, 5.27899682521820068359e-01) (165, 4.54174697399139404297e-01) (166, 5.29642462730407714844e-01) (167, 5.46643137931823730469e-01) (168, 3.66251945495605468750e-01) (169, 5.45374512672424316406e-01) (170, 5.06581366062164306641e-01) (171, 3.84087622165679931641e-01) (172, 4.53157424926757812500e-01) (173, 4.52875316143035888672e-01) (174, 5.42811632156372070312e-01) (175, 3.85073423385620117188e-01) (176, 5.45711398124694824219e-01) (177, 4.58637952804565429688e-01) (178, 4.80017960071563720703e-01) (179, 5.28719842433929443359e-01) (180, 4.87390398979187011719e-01) (181, 4.90096390247344970703e-01) (182, 4.33544158935546875000e-01) (183, 4.27712857723236083984e-01) (184, 4.26672339439392089844e-01) (185, 4.14553344249725341797e-01) (186, 3.96737039089202880859e-01) (187, 3.64617109298706054688e-01) (188, 4.64055716991424560547e-01) (189, 3.59795272350311279297e-01) (190, 4.72309529781341552734e-01) (191, 3.86184155941009521484e-01) (192, 3.97590339183807373047e-01) (193, 5.01612365245819091797e-01) (194, 5.26163756847381591797e-01) (195, 3.31220835447311401367e-01) (196, 4.00381147861480712891e-01) (197, 5.00400364398956298828e-01) (198, 3.61321330070495605469e-01) (199, 4.11227226257324218750e-01) (200, 4.90368843078613281250e-01) (201, 5.12496709823608398438e-01) (202, 4.39908981323242187500e-01) (203, 3.88120293617248535156e-01) (204, 4.09966170787811279297e-01) (205, 4.27314639091491699219e-01) (206, 4.17787849903106689453e-01) (207, 4.00271594524383544922e-01) (208, 1.85686096549034118652e-01) (209, 1.96718350052833557129e-01) (210, 3.73585462570190429688e-01) (211, 4.62531208992004394531e-01) (212, 4.77090418338775634766e-01) (213, 4.51723754405975341797e-01) (214, 5.34838199615478515625e-01) (215, 5.48356950283050537109e-01) (216, 5.10871231555938720703e-01) (217, 3.76169264316558837891e-01) (218, 3.57568085193634033203e-01) (219, 4.19520974159240722656e-01) (220, 3.80558669567108154297e-01) (221, 4.74471688270568847656e-01) (222, 4.50299263000488281250e-01) (223, 4.22743141651153564453e-01) (224, 4.20678138732910156250e-01) (225, 4.21057105064392089844e-01) (226, 4.37421381473541259766e-01) (227, 4.65653419494628906250e-01) (228, 3.66051495075225830078e-01) (229, 4.43336844444274902344e-01) (230, 5.21474719047546386719e-01) (231, 5.01014471054077148438e-01) (232, 4.00427639484405517578e-01) (233, 4.05977785587310791016e-01) (234, 5.33728897571563720703e-01) (235, 4.54987943172454833984e-01) (236, 4.77886557579040527344e-01) (237, 3.96110773086547851562e-01) (238, 4.99853760004043579102e-01) (239, 4.53027367591857910156e-01) (240, 3.83104801177978515625e-01) (241, 5.18033206462860107422e-01) (242, 3.60152602195739746094e-01) (243, 5.04789292812347412109e-01) (244, 4.14351046085357666016e-01) (245, 5.39584934711456298828e-01) (246, 4.97740209102630615234e-01) (247, 3.69816362857818603516e-01) (248, 3.60348284244537353516e-01) (249, 4.99902546405792236328e-01) (250, 4.33931469917297363281e-01) (251, 3.85501027107238769531e-01) (252, 4.18968260288238525391e-01) (253, 5.28824925422668457031e-01) (254, 4.52838301658630371094e-01) (255, 4.84240472316741943359e-01) (256, -1.17225840687751770020e-01) (0, 4.28110837936401367188e-01) (1, 2.87745028734207153320e-01) (2, 2.98378735780715942383e-01) (3, 3.16041797399520874023e-01) (4, 2.53813892602920532227e-01) (5, 4.43987339735031127930e-01) (6, 3.61063510179519653320e-01) (7, 3.04385751485824584961e-01) (8, 4.22310233116149902344e-01) (9, 2.60645538568496704102e-01) (10, 4.26866412162780761719e-01) (11, 2.63015121221542358398e-01) (12, 4.05093282461166381836e-01) (13, 3.24487894773483276367e-01) (14, 2.90713995695114135742e-01) (15, 3.67720574140548706055e-01) (16, 3.29234629869461059570e-01) (17, 4.40097421407699584961e-01) (18, 4.26665723323822021484e-01) (19, 3.13413590192794799805e-01) (20, 3.82431715726852416992e-01) (21, 4.41076248884201049805e-01) (22, 3.18356007337570190430e-01) (23, 3.26928287744522094727e-01) (24, 3.19601744413375854492e-01) (25, 3.48451107740402221680e-01) (26, 3.90490561723709106445e-01) (27, 2.93020695447921752930e-01) (28, 4.45883542299270629883e-01) (29, 3.19325178861618041992e-01) (30, 3.32090884447097778320e-01) (31, 4.25331413745880126953e-01) (32, 3.58407288789749145508e-01) (33, 3.81806701421737670898e-01) (34, 2.92710155248641967773e-01) (35, 3.63558202981948852539e-01) (36, 3.77131015062332153320e-01) (37, 4.05110746622085571289e-01) (38, 4.19281005859375000000e-01) (39, 3.50778311491012573242e-01) (40, 4.17093336582183837891e-01) (41, 3.97484451532363891602e-01) (42, 3.65130454301834106445e-01) (43, 3.73523682355880737305e-01) (44, 2.73309320211410522461e-01) (45, 4.07181531190872192383e-01) (46, 2.92581230401992797852e-01) (47, 3.53881031274795532227e-01) (48, 3.98615926504135131836e-01) (49, 2.70584017038345336914e-01) (50, 4.18631672859191894531e-01) (51, 3.32384735345840454102e-01) (52, 2.62997180223464965820e-01) (53, 2.88324624300003051758e-01) (54, 4.10649985074996948242e-01) (55, 3.33936005830764770508e-01) (56, 3.88112813234329223633e-01) (57, 3.52477639913558959961e-01) (58, 3.78293722867965698242e-01) (59, 3.85333329439163208008e-01) (60, 4.23139870166778564453e-01) (61, 2.61721640825271606445e-01) (62, 3.62001746892929077148e-01) (63, 3.32884222269058227539e-01) (64, 3.94865363836288452148e-01) (65, 4.06048923730850219727e-01) (66, 4.47779506444931030273e-01) (67, 3.23333472013473510742e-01) (68, 3.62496703863143920898e-01) (69, 4.18397486209869384766e-01) (70, 4.25448775291442871094e-01) (71, 3.30927103757858276367e-01) (72, 3.67218941450119018555e-01) (73, 3.41916292905807495117e-01) (74, 2.55787760019302368164e-01) (75, 3.91865342855453491211e-01) (76, 3.00434857606887817383e-01) (77, 2.99706071615219116211e-01) (78, 2.97083407640457153320e-01) (79, 2.50387847423553466797e-01) (80, 3.21627169847488403320e-01) (81, 2.67052084207534790039e-01) (82, 3.34109634160995483398e-01) (83, 3.35961371660232543945e-01) (84, 3.06713789701461791992e-01) (85, 2.96096652746200561523e-01) (86, 4.21234428882598876953e-01) (87, 4.46163624525070190430e-01) (88, 3.99911314249038696289e-01) (89, 3.50865155458450317383e-01) (90, 3.82833927869796752930e-01) (91, 3.74388247728347778320e-01) (92, 3.63923877477645874023e-01) (93, 2.96172708272933959961e-01) (94, 2.58609443902969360352e-01) (95, 3.10126274824142456055e-01) (96, 2.53558695316314697266e-01) (97, -1.09607100486755371094e+00) (98, 3.84171128273010253906e-01) (99, 1.69599667191505432129e-01) (100, 1.61576271057128906250e-01) (101, -3.83667379617691040039e-01) (102, 2.52953082323074340820e-01) (103, 3.48694533109664916992e-01) (104, 3.02607655525207519531e-01) (105, 1.93819522857666015625e+01) (106, 3.34533035755157470703e-01) (107, 3.51921975612640380859e-01) (108, 1.39681994915008544922e-01) (109, 3.55813264846801757812e-01) (110, 1.13319749832153320312e+01) (111, -2.38325977325439453125e+00) (112, 4.03007775545120239258e-01) (113, 3.93100023269653320312e-01) (114, -1.64810538291931152344e+00) (115, -2.35136089324951171875e+01) (116, 2.07237491607666015625e+01) (117, 2.28645026683807373047e-01) (118, 4.14876371622085571289e-01) (119, 4.41328078508377075195e-01) (120, 3.42181563377380371094e-01) (121, 3.94893676042556762695e-01) (122, 3.67329448461532592773e-01) (123, 2.58121699094772338867e-01) (124, 3.93260568380355834961e-01) (125, 3.28133136034011840820e-01) (126, 3.19584995508193969727e-01) (127, 3.98156315088272094727e-01) (128, 3.37196141481399536133e-01) (129, 2.55327522754669189453e-01) (130, 3.16566616296768188477e-01) (131, 3.15993636846542358398e-01) (132, 3.68319123983383178711e-01) (133, 3.17560225725173950195e-01) (134, 4.13347125053405761719e-01) (135, 3.74811202287673950195e-01) (136, 3.25997859239578247070e-01) (137, 2.53903001546859741211e-01) (138, 4.32756036520004272461e-01) (139, 3.85159403085708618164e-01) (140, 3.42879325151443481445e-01) (141, 2.92425662279129028320e-01) (142, 3.17285150289535522461e-01) (143, 2.50244766473770141602e-01) (144, 4.37541991472244262695e-01) (145, 3.36709350347518920898e-01) (146, 4.15661036968231201172e-01) (147, 4.30092006921768188477e-01) (148, 3.28704982995986938477e-01) (149, 3.78577917814254760742e-01) (150, 3.73890310525894165039e-01) (151, 4.22902822494506835938e-01) (152, 2.75665789842605590820e-01) (153, 4.43094819784164428711e-01) (154, 4.32361572980880737305e-01) (155, 4.19944286346435546875e-01) (156, 3.22884112596511840820e-01) (157, 3.03283542394638061523e-01) (158, 3.69756788015365600586e-01) (159, 4.11417305469512939453e-01) (160, 3.10339361429214477539e-01) (161, 4.36852633953094482422e-01) (162, 2.78747886419296264648e-01) (163, 4.29635584354400634766e-01) (164, 3.07196110486984252930e-01) (165, 4.43432122468948364258e-01) (166, 3.56462985277175903320e-01) (167, 3.83851766586303710938e-01) (168, 2.48672038316726684570e-01) (169, 3.37554842233657836914e-01) (170, 3.20708245038986206055e-01) (171, 3.42888444662094116211e-01) (172, 3.84318739175796508789e-01) (173, 3.88522565364837646484e-01) (174, 3.44470292329788208008e-01) (175, 3.73197704553604125977e-01) (176, 2.77304768562316894531e-01) (177, 3.11468333005905151367e-01) (178, 3.54626685380935668945e-01) (179, 3.56610953807830810547e-01) (180, 4.41383391618728637695e-01) (181, 2.77312457561492919922e-01) (182, 3.31977814435958862305e-01) (183, 2.68386155366897583008e-01) (184, 2.74213790893554687500e-01) (185, 3.15676420927047729492e-01) (186, 4.39986675977706909180e-01) (187, 3.48826199769973754883e-01) (188, 3.69977802038192749023e-01) (189, 3.60689222812652587891e-01) (190, 3.09038937091827392578e-01) (191, 4.31973487138748168945e-01) (192, 3.50397139787673950195e-01) (193, 3.41665476560592651367e-01) (194, 4.13625180721282958984e-01) (195, 2.93118864297866821289e-01) (196, 3.82024884223937988281e-01) (197, 3.67015540599822998047e-01) (198, 3.44798296689987182617e-01) (199, 3.36443692445755004883e-01) (200, 4.13318276405334472656e-01) (201, 4.17162775993347167969e-01) (202, 4.30669158697128295898e-01) (203, 3.48974019289016723633e-01) (204, 3.58149439096450805664e-01) (205, 3.26476424932479858398e-01) (206, 2.73508757352828979492e-01) (207, 3.87182444334030151367e-01) (208, 1.04929959774017333984e+00) (209, 7.71999716758728027344e-01) (210, 2.96257466077804565430e-01) (211, 3.82002145051956176758e-01) (212, 4.10663574934005737305e-01) (213, 3.79572361707687377930e-01) (214, 4.01725381612777709961e-01) (215, 4.36605721712112426758e-01) (216, 4.46585863828659057617e-01) (217, 3.93049031496047973633e-01) (218, 3.36768895387649536133e-01) (219, 3.68219822645187377930e-01) (220, 3.05466502904891967773e-01) (221, 3.99686425924301147461e-01) (222, 3.51530283689498901367e-01) (223, 4.07200664281845092773e-01) (224, 2.92688935995101928711e-01) (225, 3.16492527723312377930e-01) (226, 3.67467969655990600586e-01) (227, 3.80460530519485473633e-01) (228, 3.89254719018936157227e-01) (229, 2.63603240251541137695e-01) (230, 2.68241196870803833008e-01) (231, 3.53910058736801147461e-01) (232, 4.32103127241134643555e-01) (233, 2.50247359275817871094e-01) (234, 2.54221111536026000977e-01) (235, 3.41589540243148803711e-01) (236, 3.28060895204544067383e-01) (237, 2.79066950082778930664e-01) (238, 2.80109077692031860352e-01) (239, 2.68679708242416381836e-01) (240, 4.09876495599746704102e-01) (241, 3.27703624963760375977e-01) (242, 4.02018934488296508789e-01) (243, 3.71877163648605346680e-01) (244, 2.58612960577011108398e-01) (245, 3.55081349611282348633e-01) (246, 3.59819859266281127930e-01) (247, 2.56535798311233520508e-01) (248, 2.99467355012893676758e-01) (249, 4.47925835847854614258e-01) (250, 3.76092642545700073242e-01) (251, 3.56270939111709594727e-01) (252, 3.98949235677719116211e-01) (253, 2.78959959745407104492e-01) (254, 3.14808636903762817383e-01) (255, 4.42975252866744995117e-01) (256, 6.39238134026527404785e-02) (0, 1.27833992242813110352e-01) (1, 6.89930841326713562012e-02) (2, -1.83983892202377319336e-02) (3, 1.42774283885955810547e-01) (4, 8.85713249444961547852e-02) (5, 8.68486911058425903320e-02) (6, 1.26214399933815002441e-01) (7, 9.01557356119155883789e-02) (8, 9.24068838357925415039e-02) (9, 1.91409736871719360352e-02) (10, -3.04463654756546020508e-02) (11, 1.22810900211334228516e-01) (12, 5.05870692431926727295e-02) (13, -1.04296049103140830994e-02) (14, 8.40244442224502563477e-02) (15, 1.29627764225006103516e-01) (16, -5.70736490190029144287e-02) (17, 7.23863067105412483215e-03) (18, 1.39577776193618774414e-01) (19, 4.93447296321392059326e-02) (20, 1.18395499885082244873e-01) (21, -5.25494404137134552002e-02) (22, 1.00149184465408325195e-01) (23, 1.17658309638500213623e-01) (24, 7.48802945017814636230e-02) (25, 7.75711564347147941589e-03) (26, 6.79445788264274597168e-02) (27, 1.05177313089370727539e-01) (28, 7.39027783274650573730e-02) (29, 6.22567869722843170166e-02) (30, 3.30382562242448329926e-03) (31, 5.88533990085124969482e-02) (32, -1.16334231570363044739e-02) (33, 4.20221500098705291748e-02) (34, 5.87443523108959197998e-02) (35, 1.34054660797119140625e-01) (36, -1.40124363824725151062e-02) (37, 4.20754514634609222412e-02) (38, 8.13270360231399536133e-02) (39, 1.35511189699172973633e-01) (40, 1.18333153426647186279e-01) (41, 1.07997380197048187256e-01) (42, 1.15438751876354217529e-01) (43, 2.60369181632995605469e-02) (44, -4.53155115246772766113e-02) (45, 5.65798692405223846436e-02) (46, 1.27813415601849555969e-02) (47, -4.52724397182464599609e-02) (48, 1.20935223996639251709e-01) (49, 9.47578717023134231567e-03) (50, 6.11889697611331939697e-02) (51, 9.64474231004714965820e-02) (52, 1.40430657193064689636e-02) (53, 1.84548646211624145508e-02) (54, 7.12224468588829040527e-02) (55, -5.39599619805812835693e-02) (56, 8.33286792039871215820e-02) (57, -3.71629046276211738586e-03) (58, 1.08334057033061981201e-01) (59, 1.43481669947504997253e-02) (60, 1.15657202899456024170e-01) (61, -3.12454085797071456909e-02) (62, 1.30318313837051391602e-01) (63, -3.88595089316368103027e-02) (64, 6.78934678435325622559e-02) (65, 4.61793504655361175537e-02) (66, -4.76882010698318481445e-02) (67, 1.10997729003429412842e-01) (68, -5.46284951269626617432e-02) (69, 9.07555669546127319336e-02) (70, 1.03625595569610595703e-01) (71, 1.20821379125118255615e-01) (72, 5.58696500957012176514e-02) (73, 7.61810466647148132324e-02) (74, 3.97499278187751770020e-03) (75, 6.76708444952964782715e-02) (76, -1.01223727688193321228e-02) (77, 7.38730356097221374512e-02) (78, 7.95151218771934509277e-02) (79, -3.20704318583011627197e-02) (80, 1.40465557575225830078e-01) (81, -2.17916141264140605927e-03) (82, 1.21493726968765258789e-01) (83, 1.16252945736050605774e-02) (84, 7.33924135565757751465e-02) (85, 4.98328469693660736084e-02) (86, 1.47820590063929557800e-02) (87, 1.38378040865063667297e-02) (88, 1.03233277797698974609e-01) (89, -1.97671949863433837891e-02) (90, 8.53026658296585083008e-02) (91, 7.60071799159049987793e-02) (92, 6.10410002991557121277e-03) (93, 7.27376565337181091309e-02) (94, 9.42643731832504272461e-02) (95, 1.31114304065704345703e-01) (96, -2.39662677049636840820e-02) (97, 4.13984470069408416748e-02) (98, 1.07292778789997100830e-01) (99, -3.62640619277954101562e-02) (100, -4.76169697940349578857e-02) (101, 4.04777377843856811523e-01) (102, -3.54759059846401214600e-02) (103, -2.73844115436077117920e-02) (104, 2.91315093636512756348e-03) (105, 3.28685909509658813477e-01) (106, 9.63805615901947021484e-02) (107, 4.86871190369129180908e-02) (108, -1.49220302700996398926e-01) (109, -1.14094298332929611206e-02) (110, 6.42062664031982421875e-01) (111, -1.34551882743835449219e+00) (112, 8.89725014567375183105e-02) (113, 1.13781886175274848938e-02) (114, -1.93049597740173339844e+00) (115, -9.04802024364471435547e-01) (116, -1.46797728538513183594e+00) (117, 4.93841208517551422119e-02) (118, 5.12196086347103118896e-02) (119, 1.19643345475196838379e-01) (120, 1.24114006757736206055e-01) (121, 3.32155153155326843262e-02) (122, 5.27672357857227325439e-02) (123, -1.26652074977755546570e-02) (124, -4.53541800379753112793e-02) (125, -4.27573872730135917664e-03) (126, -2.44342535734176635742e-02) (127, -1.22037334367632865906e-02) (128, -4.34661433100700378418e-02) (129, 1.31911188364028930664e-01) (130, 3.04764173924922943115e-02) (131, 6.52157217264175415039e-02) (132, 4.89988140761852264404e-02) (133, 4.40531410276889801025e-02) (134, 8.68839472532272338867e-02) (135, 9.93842482566833496094e-02) (136, 1.11680112779140472412e-01) (137, 3.33397202193737030029e-02) (138, -3.23601090349256992340e-03) (139, 1.17338262498378753662e-01) (140, 1.16427354514598846436e-01) (141, 1.19190029799938201904e-01) (142, 1.20578698813915252686e-01) (143, 5.44524751603603363037e-02) (144, 2.02264934778213500977e-02) (145, -7.43891438469290733337e-03) (146, 1.22986763715744018555e-01) (147, 2.82125063240528106689e-02) (148, 1.36442303657531738281e-01) (149, 6.24755099415779113770e-02) (150, -3.45151149667799472809e-03) (151, 1.17672942578792572021e-01) (152, -5.56163154542446136475e-02) (153, 1.05049893260002136230e-01) (154, -3.78755629062652587891e-02) (155, -4.38537746667861938477e-02) (156, -4.91506680846214294434e-02) (157, -5.19311567768454551697e-03) (158, 1.05918874032795429230e-03) (159, -3.55000831186771392822e-02) (160, -1.61652676761150360107e-02) (161, 8.16108137369155883789e-02) (162, 8.68323594331741333008e-02) (163, 8.99502485990524291992e-02) (164, -2.42608040571212768555e-02) (165, 3.08329984545707702637e-02) (166, 4.64511923491954803467e-02) (167, -8.80055949091911315918e-02) (168, 1.21289454400539398193e-01) (169, -6.52010083198547363281e-01) (170, 1.18990980088710784912e-01) (171, 9.48334783315658569336e-02) (172, 7.66386613249778747559e-02) (173, 9.66863483190536499023e-02) (174, 6.40267459675669670105e-03) (175, -4.60181683301925659180e-02) (176, -5.36358617246150970459e-02) (177, -1.34938610717654228210e-02) (178, 3.93110476434230804443e-02) (179, 1.39923155307769775391e-01) (180, 1.06098383665084838867e-01) (181, 9.29762572050094604492e-02) (182, 1.14712767302989959717e-01) (183, 1.07598781585693359375e-01) (184, 4.78194765746593475342e-02) (185, 1.33953958749771118164e-01) (186, 1.20861731469631195068e-01) (187, 5.60673885047435760498e-02) (188, -1.41224814578890800476e-02) (189, -2.09623873233795166016e-02) (190, 7.74021521210670471191e-02) (191, 2.68289446830749511719e-02) (192, 1.17765150964260101318e-01) (193, 2.16330587863922119141e-02) (194, -2.61040925979614257812e-02) (195, -4.54324781894683837891e-01) (196, 1.16624273359775543213e-01) (197, 8.48653241991996765137e-02) (198, -4.77262586355209350586e-02) (199, 8.79888981580734252930e-02) (200, 3.49124185740947723389e-02) 